svm_type c_svc
kernel_type sigmoid
gamma 0.00111111
coef0 0
nr_class 2
total_sv 8
rho -0.777003
label 11 1
nr_sv 4 4
SV
25.90603159859639 1:0.5 2:0.5 3:0.3984 4:0.457 5:0.4414 6:0.2344 7:0.1055 8:0.08203 9:0.09375 10:0.1289 11:0.207 12:0.2305 13:0.3945 14:0.5312 15:0.6602 16:0.6992 17:0.6875 18:0.6758 19:0.4766 20:0.3008 21:0.2578 22:0.2227 23:0.2109 24:0.2031 25:0.2148 26:0.2266 27:0.2461 28:0.2539 29:0.2539 30:0.5 31:0.5 32:0.5 33:0.4961 34:0.2578 35:0.08984 36:0.06641 37:0.0625 38:0.07422 39:0.08594 40:0.125 41:0.1836 42:0.1992 43:0.4414 44:0.5312 45:0.6562 46:0.7227 47:0.6992 48:0.6914 49:0.3711 50:0.2734 51:0.2422 52:0.2109 53:0.1875 54:0.168 55:0.2148 56:0.1562 57:0.1719 58:0.25 59:0.2422 60:0.5 61:0.5 62:0.4844 63:0.2266 64:0.1484 65:0.08594 66:0.07031 67:0.06641 68:0.07422 69:0.08203 70:0.1133 71:0.1875 72:0.2422 73:0.4375 74:0.5391 75:0.7422 76:0.7578 77:0.7617 78:0.7305 79:0.3125 80:0.2461 81:0.207 82:0.1992 83:0.1875 84:0.1641 85:0.1445 86:0.08594 87:0.07031 88:0.08984 89:0.1367 90:0.2227 91:0.5 92:0.3281 93:0.2305 94:0.2227 95:0.09766 96:0.07812 97:0.07422 98:0.08594 99:0.09375 100:0.1055 101:0.2617 102:0.3164 103:0.4961 104:0.5625 105:0.9297 106:0.918 107:0.8477 108:0.7852 109:0.3711 110:0.2227 111:0.2031 112:0.1953 113:0.1719 114:0.1562 115:0.1055 116:0.05469 117:0.05859 118:0.04688 119:0.0625 120:0.1172 121:0.5 122:0.5039 123:0.332 124:0.2305 125:0.1562 126:0.08984 127:0.09375 128:0.1055 129:0.1055 130:0.1875 131:0.3594 132:0.4531 133:0.543 134:0.6367 135:0.9492 136:0.9414 137:0.9062 138:0.8281 139:0.3828 140:0.2578 141:0.2891 142:0.2031 143:0.1758 144:0.1719 145:0.2578 146:0.05469 147:0.05078 148:0.05469 149:0.08984 150:0.08594 151:0.5 152:0.5664 153:0.4766 154:0.2578 155:0.2109 156:0.1523 157:0.1445 158:0.1758 159:0.25 160:0.332 161:0.4102 162:0.4922 163:0.625 164:0.918 165:0.9492 166:0.9492 167:0.9336 168:0.8477 169:0.3633 170:0.332 171:0.3086 172:0.2891 173:0.2188 174:0.1836 175:0.2305 176:0.0625 177:0.05859 178:0.07031 179:0.09375 180:0.09375 181:0.5 182:0.6406 183:0.5508 184:0.4414 185:0.2656 186:0.2617 187:0.2305 188:0.2734 189:0.2695 190:0.3438 191:0.4414 192:0.6758 193:0.8125 194:0.9375 195:0.957 196:0.957 197:0.9492 198:0.8359 199:0.6406 200:0.3672 201:0.3398 202:0.3203 203:0.2656 204:0.2344 205:0.2031 206:0.1602 207:0.09766 208:0.1289 209:0.1094 210:0.1641 211:0.8086 212:0.7188 213:0.6875 214:0.5703 215:0.4805 216:0.3086 217:0.3789 218:0.3398 219:0.3555 220:0.4414 221:0.668 222:0.7656 223:0.8867 224:0.9414 225:0.9609 226:0.9609 227:0.9414 228:0.8203 229:0.6406 230:0.4219 231:0.3359 232:0.3398 233:0.332 234:0.4141 235:0.3164 236:0.2344 237:0.2578 238:0.2383 239:0.3164 240:0.3203 241:0.8477 242:0.8242 243:0.7656 244:0.625 245:0.5469 246:0.4492 247:0.4766 248:0.3516 249:0.582 250:0.6172 251:0.7227 252:0.7891 253:0.9023 254:0.957 255:0.9648 256:0.9648 257:0.9219 258:0.8047 259:0.6406 260:0.4805 261:0.3711 262:0.4062 263:0.4258 264:0.4492 265:0.4102 266:0.4375 267:0.2852 268:0.3281 269:0.3633 270:0.3125 271:0.8945 272:0.8789 273:0.8828 274:0.75 275:0.6914 276:0.6836 277:0.6406 278:0.6367 279:0.6562 280:0.7344 281:0.7773 282:0.8789 283:0.9453 284:0.9648 285:0.9727 286:0.9727 287:0.9414 288:0.8086 289:0.7461 290:0.5391 291:0.4375 292:0.4492 293:0.5078 294:0.4883 295:0.457 296:0.4766 297:0.5117 298:0.4414 299:0.457 300:0.4297 301:0.8984 302:0.8945 303:0.8945 304:0.8086 305:0.7266 306:0.6797 307:0.6992 308:0.7305 309:0.75 310:0.7656 311:0.7969 312:0.8672 313:0.957 314:0.9727 315:0.9766 316:0.9727 317:0.9453 318:0.8164 319:0.7734 320:0.6875 321:0.5078 322:0.5039 323:0.5586 324:0.5508 325:0.5312 326:0.5352 327:0.5547 328:0.5 329:0.4922 330:0.5625 331:0.8867 332:0.875 333:0.875 334:0.7773 335:0.7422 336:0.7188 337:0.8008 338:0.7969 339:0.7969 340:0.8086 341:0.8008 342:0.9258 343:0.9609 344:0.9727 345:0.9766 346:0.9727 347:0.9375 348:0.8359 349:0.7891 350:0.7656 351:0.5078 352:0.5078 353:0.5273 354:0.5586 355:0.5703 356:0.5703 357:0.543 358:0.6484 359:0.7305 360:0.668 361:0.8477 362:0.8125 363:0.832 364:0.8281 365:0.7852 366:0.8203 367:0.8242 368:0.8047 369:0.7773 370:0.7695 371:0.8047 372:0.9297 373:0.9609 374:0.9688 375:0.9727 376:0.9648 377:0.8633 378:0.8008 379:0.7695 380:0.7461 381:0.4883 382:0.4805 383:0.5312 384:0.5898 385:0.7188 386:0.7305 387:0.6602 388:0.7969 389:0.7461 390:0.6875 391:0.8203 392:0.8398 393:0.8438 394:0.8789 395:0.8945 396:0.8711 397:0.8594 398:0.7695 399:0.6992 400:0.7422 401:0.8086 402:0.9297 403:0.9531 404:0.9609 405:0.957 406:0.9219 407:0.8281 408:0.793 409:0.7656 410:0.543 411:0.4727 412:0.4805 413:0.5352 414:0.625 415:0.7578 416:0.6602 417:0.7969 418:0.8047 419:0.7578 420:0.8164 421:0.8516 422:0.8555 423:0.8828 424:0.9102 425:0.9141 426:0.9141 427:0.8516 428:0.6641 429:0.6211 430:0.6836 431:0.9297 432:0.9258 433:0.9375 434:0.9492 435:0.8906 436:0.8281 437:0.8008 438:0.7695 439:0.7344 440:0.6484 441:0.4609 442:0.4609 443:0.5352 444:0.5859 445:0.6055 446:0.7734 447:0.7617 448:0.7656 449:0.7852 450:0.8086 451:0.8633 452:0.8789 453:0.9062 454:0.918 455:0.9219 456:0.9102 457:0.6797 458:0.4805 459:0.4844 460:0.7188 461:0.918 462:0.918 463:0.9062 464:0.875 465:0.8047 466:0.7852 467:0.7656 468:0.6992 469:0.6758 470:0.6953 471:0.7109 472:0.4375 473:0.6055 474:0.6484 475:0.7461 476:0.8008 477:0.6719 478:0.8047 479:0.8125 480:0.8086 481:0.8672 482:0.8906 483:0.9023 484:0.9141 485:0.918 486:0.7148 487:0.6094 488:0.4492 489:0.4531 490:0.8945 491:0.8945 492:0.8633 493:0.8008 494:0.7656 495:0.7617 496:0.7461 497:0.707 498:0.5898 499:0.5117 500:0.625 501:0.5078 502:0.4336 503:0.6445 504:0.5938 505:0.7578 506:0.7773 507:0.7773 508:0.7656 509:0.7617 510:0.7812 511:0.8633 512:0.875 513:0.8867 514:0.8867 515:0.8633 516:0.6445 517:0.5195 518:0.4102 519:0.4141 520:0.6875 521:0.7461 522:0.7773 523:0.7461 524:0.7422 525:0.7188 526:0.7266 527:0.6562 528:0.4922 529:0.5938 530:0.5391 531:0.4414 532:0.4219 533:0.75 534:0.8086 535:0.7891 536:0.8008 537:0.7656 538:0.7617 539:0.7539 540:0.8008 541:0.5 542:0.8633 543:0.8398 544:0.832 545:0.7305 546:0.5273 547:0.418 548:0.3867 549:0.4062 550:0.5742 551:0.5586 552:0.3984 553:0.6953 554:0.6641 555:0.6602 556:0.6367 557:0.3594 558:0.2578 559:0.3711 560:0.4453 561:0.4375 562:0.418 563:0.5039 564:0.7969 565:0.8242 566:0.793 567:0.6328 568:0.75 569:0.6523 570:0.7734 571:0.5 572:0.8398 573:0.8242 574:0.7422 575:0.6133 576:0.4414 577:0.3672 578:0.3711 579:0.3945 580:0.418 581:0.3867 582:0.2148 583:0.2734 584:0.5664 585:0.5898 586:0.582 587:0.1719 588:0.09375 589:0.1719 590:0.4141 591:0.3516 592:0.3984 593:0.4492 594:0.8242 595:0.8359 596:0.8281 597:0.7891 598:0.75 599:0.6289 600:0.7344 601:0.5 602:0.8164 603:0.7734 604:0.7031 605:0.4883 606:0.4141 607:0.3633 608:0.3984 609:0.4141 610:0.4453 611:0.4102 612:0.2305 613:0.2422 614:0.3711 615:0.2891 616:0.3164 617:0.1094 618:0.09375 619:0.1172 620:0.2227 621:0.2617 622:0.4258 623:0.5039 624:0.7852 625:0.8359 626:0.7812 627:0.8164 628:0.75 629:0.6758 630:0.6758 631:0.5 632:0.7656 633:0.707 634:0.582 635:0.4844 636:0.3633 637:0.3477 638:0.418 639:0.4609 640:0.5781 641:0.6094 642:0.4102 643:0.2227 644:0.2656 645:0.2695 646:0.125 647:0.1094 648:0.1055 649:0.1094 650:0.1484 651:0.2891 652:0.3984 653:0.543 654:0.7812 655:0.8438 656:0.8281 657:0.8203 658:0.6914 659:0.7617 660:0.7344 661:0.5 662:0.75 663:0.6211 664:0.4727 665:0.3711 666:0.3281 667:0.375 668:0.4922 669:0.5781 670:0.6094 671:0.6094 672:0.5312 673:0.2109 674:0.2344 675:0.168 676:0.07422 677:0.07812 678:0.08984 679:0.1055 680:0.1445 681:0.3242 682:0.3945 683:0.4375 684:0.5938 685:0.8398 686:0.8281 687:0.8281 688:0.6602 689:0.7383 690:0.7344 691:0.5 692:0.5 693:0.5898 694:0.4414 695:0.3438 696:0.3281 697:0.4297 698:0.5078 699:0.5938 700:0.5938 701:0.5469 702:0.2188 703:0.2227 704:0.08594 705:0.07812 706:0.05859 707:0.0625 708:0.07031 709:0.09766 710:0.1445 711:0.2891 712:0.3984 713:0.3789 714:0.4648 715:0.832 716:0.8281 717:0.8203 718:0.75 719:0.625 720:0.5 721:0.5 722:0.5 723:0.5508 724:0.3867 725:0.3242 726:0.4258 727:0.543 728:0.5508 729:0.5508 730:0.4922 731:0.4336 732:0.1445 733:0.08594 734:0.05469 735:0.05078 736:0.04297 737:0.04297 738:0.04688 739:0.07812 740:0.1719 741:0.25 742:0.3633 743:0.3789 744:0.375 745:0.5703 746:0.8164 747:0.75 748:0.7422 749:0.6445 750:0.5 751:0.5 752:0.5 753:0.5547 754:0.332 755:0.3438 756:0.5234 757:0.5312 758:0.5312 759:0.457 760:0.2227 761:0.207 762:0.1836 763:0.08984 764:0.05078 765:0.04297 766:0.03516 767:0.03906 768:0.03906 769:0.05859 770:0.1406 771:0.2539 772:0.3555 773:0.3633 774:0.3633 775:0.5195 776:0.75 777:0.6719 778:0.625 779:0.7344 780:0.5 781:0.5 782:0.5 783:0.5 784:0.3398 785:0.5352 786:0.5391 787:0.4883 788:0.2461 789:0.2188 790:0.2422 791:0.1797 792:0.2656 793:0.1289 794:0.05078 795:0.04297 796:0.03906 797:0.03516 798:0.03516 799:0.05078 800:0.09766 801:0.25 802:0.3398 803:0.3555 804:0.3516 805:0.3711 806:0.7344 807:0.7773 808:0.6719 809:0.5 810:0.5 811:0.5 812:0.5 813:0.5 814:0.3359 815:0.5078 816:0.4453 817:0.3984 818:0.2109 819:0.1914 820:0.2109 821:0.1484 822:0.2891 823:0.2383 824:0.05469 825:0.05859 826:0.05469 827:0.04297 828:0.03906 829:0.04688 830:0.06641 831:0.1602 832:0.3242 833:0.3633 834:0.332 835:0.3633 836:0.6289 837:0.7227 838:0.7539 839:0.5 840:0.5 841:0.5 842:0.5 843:0.5 844:0.5 845:0.457 846:0.3555 847:0.207 848:0.1836 849:0.207 850:0.2344 851:0.2539 852:0.2617 853:0.3047 854:0.1094 855:0.1055 856:0.1328 857:0.08203 858:0.03906 859:0.04688 860:0.0625 861:0.125 862:0.2891 863:0.3789 864:0.3477 865:0.3555 866:0.6055 867:0.6484 868:0.5 869:0.5 870:0.5 871:0.5 872:0.5 873:0.5 874:0.5 875:0.3906 876:0.2734 877:0.1953 878:0.1992 879:0.207 880:0.1953 881:0.125 882:0.08984 883:0.1211 884:0.2266 885:0.1875 886:0.09375 887:0.125 888:0.0625 889:0.06641 890:0.09375 891:0.1523 892:0.2852 893:0.3945 894:0.3398 895:0.3516 896:0.3984 897:0.625 898:0.5 899:0.5 900:0.5 
129.9540245009045 1:0.5 2:0.5 3:0.3594 4:0.2539 5:0.2188 6:0.1758 7:0.1172 8:0.08594 9:0.08594 10:0.1016 11:0.1523 12:0.2695 13:0.3086 14:0.4492 15:0.6289 16:0.625 17:0.4375 18:0.4453 19:0.3672 20:0.1875 21:0.1758 22:0.1484 23:0.1602 24:0.1484 25:0.1836 26:0.2305 27:0.2773 28:0.2383 29:0.25 30:0.5 31:0.5 32:0.5 33:0.3516 34:0.3086 35:0.2461 36:0.1875 37:0.09375 38:0.08203 39:0.08984 40:0.1016 41:0.1406 42:0.2422 43:0.3281 44:0.5312 45:0.6289 46:0.6328 47:0.6172 48:0.4297 49:0.2422 50:0.1914 51:0.1758 52:0.1523 53:0.1328 54:0.1328 55:0.1328 56:0.1445 57:0.2148 58:0.207 59:0.2148 60:0.5 61:0.5 62:0.3867 63:0.3789 64:0.3516 65:0.207 66:0.1328 67:0.0625 68:0.06641 69:0.07812 70:0.09766 71:0.1406 72:0.2891 73:0.3516 74:0.5742 75:0.6562 76:0.6602 77:0.6406 78:0.4375 79:0.207 80:0.1875 81:0.168 82:0.1484 83:0.1328 84:0.1172 85:0.0625 86:0.03906 87:0.03125 88:0.03906 89:0.1055 90:0.1523 91:0.5 92:0.4258 93:0.3633 94:0.1016 95:0.04297 96:0.04297 97:0.04297 98:0.05078 99:0.07031 100:0.1133 101:0.1641 102:0.2461 103:0.3164 104:0.543 105:0.7109 106:0.6953 107:0.7266 108:0.4102 109:0.2188 110:0.2031 111:0.1836 112:0.1602 113:0.1133 114:0.1133 115:0.06641 116:0.03906 117:0.03516 118:0.03516 119:0.04688 120:0.05859 121:0.5 122:0.4258 123:0.1484 124:0.1523 125:0.05859 126:0.04297 127:0.04297 128:0.05469 129:0.06641 130:0.09375 131:0.1992 132:0.2852 133:0.375 134:0.6094 135:0.8789 136:0.8516 137:0.8203 138:0.7344 139:0.2461 140:0.2188 141:0.2266 142:0.1719 143:0.1133 144:0.1562 145:0.1211 146:0.03906 147:0.03516 148:0.04297 149:0.05469 150:0.05078 151:0.5 152:0.3008 153:0.2227 154:0.1758 155:0.06641 156:0.05078 157:0.04688 158:0.0625 159:0.08984 160:0.125 161:0.2695 162:0.3516 163:0.4727 164:0.7656 165:0.9297 166:0.9141 167:0.8555 168:0.793 169:0.25 170:0.2461 171:0.2383 172:0.2383 173:0.2148 174:0.2031 175:0.1445 176:0.06641 177:0.0625 178:0.05469 179:0.08594 180:0.07422 181:0.5 182:0.4922 183:0.418 184:0.2266 185:0.1797 186:0.1328 187:0.08203 188:0.1211 189:0.1211 190:0.2695 191:0.3555 192:0.4414 193:0.6367 194:0.8945 195:0.9414 196:0.9297 197:0.8984 198:0.8203 199:0.418 200:0.3516 201:0.2656 202:0.25 203:0.2422 204:0.2695 205:0.2188 206:0.1797 207:0.2305 208:0.2422 209:0.2227 210:0.2539 211:0.6172 212:0.5742 213:0.5273 214:0.293 215:0.2539 216:0.2148 217:0.1562 218:0.1953 219:0.2461 220:0.2773 221:0.418 222:0.6016 223:0.7422 224:0.9023 225:0.9531 226:0.9492 227:0.9258 228:0.8125 229:0.4492 230:0.3945 231:0.3203 232:0.2695 233:0.2773 234:0.2891 235:0.3711 236:0.3594 237:0.2852 238:0.3164 239:0.2578 240:0.3008 241:0.7031 242:0.668 243:0.5977 244:0.4492 245:0.3516 246:0.2773 247:0.2383 248:0.2461 249:0.3164 250:0.4141 251:0.582 252:0.7109 253:0.8086 254:0.9492 255:0.9609 256:0.9609 257:0.9336 258:0.7891 259:0.4844 260:0.4336 261:0.4492 262:0.4297 263:0.3594 264:0.375 265:0.3906 266:0.3711 267:0.3984 268:0.3164 269:0.3164 270:0.4688 271:0.8008 272:0.7148 273:0.7539 274:0.5859 275:0.4844 276:0.375 277:0.2617 278:0.4062 279:0.4648 280:0.5156 281:0.6719 282:0.7812 283:0.9375 284:0.9648 285:0.9727 286:0.9688 287:0.9492 288:0.8164 289:0.75 290:0.4688 291:0.4492 292:0.4844 293:0.5 294:0.4922 295:0.5117 296:0.3984 297:0.5078 298:0.3711 299:0.4258 300:0.5625 301:0.9102 302:0.8984 303:0.8633 304:0.7578 305:0.7148 306:0.6172 307:0.6094 308:0.582 309:0.5703 310:0.6211 311:0.7188 312:0.8906 313:0.9531 314:0.9727 315:0.9766 316:0.9766 317:0.9609 318:0.8359 319:0.7812 320:0.5117 321:0.4727 322:0.4688 323:0.5312 324:0.5273 325:0.5859 326:0.5703 327:0.6406 328:0.582 329:0.6484 330:0.7031 331:0.918 332:0.918 333:0.918 334:0.9062 335:0.7891 336:0.6875 337:0.6641 338:0.6406 339:0.6797 340:0.6875 341:0.7617 342:0.8945 343:0.9609 344:0.9727 345:0.9766 346:0.9766 347:0.9648 348:0.832 349:0.7969 350:0.7422 351:0.4531 352:0.4531 353:0.5078 354:0.5859 355:0.6289 356:0.7305 357:0.7734 358:0.7266 359:0.6445 360:0.7266 361:0.9062 362:0.9102 363:0.9062 364:0.875 365:0.7422 366:0.7344 367:0.7578 368:0.8086 369:0.7578 370:0.7734 371:0.793 372:0.8945 373:0.9648 374:0.9727 375:0.9766 376:0.9727 377:0.9531 378:0.8281 379:0.793 380:0.7695 381:0.4688 382:0.4805 383:0.4883 384:0.582 385:0.6172 386:0.6602 387:0.7578 388:0.7109 389:0.7266 390:0.7695 391:0.8789 392:0.8555 393:0.8281 394:0.8203 395:0.7812 396:0.7773 397:0.8281 398:0.7891 399:0.7891 400:0.7305 401:0.7656 402:0.8672 403:0.9609 404:0.9688 405:0.9688 406:0.957 407:0.8906 408:0.8047 409:0.7695 410:0.7109 411:0.4336 412:0.4766 413:0.5312 414:0.6094 415:0.6836 416:0.7344 417:0.707 418:0.7422 419:0.7578 420:0.7383 421:0.8086 422:0.8242 423:0.8086 424:0.8594 425:0.8945 426:0.8828 427:0.8711 428:0.7617 429:0.6914 430:0.6875 431:0.7461 432:0.9336 433:0.9531 434:0.9648 435:0.9531 436:0.9102 437:0.8242 438:0.7891 439:0.7656 440:0.7383 441:0.5781 442:0.4727 443:0.5547 444:0.5938 445:0.6914 446:0.7031 447:0.7344 448:0.7227 449:0.6953 450:0.7227 451:0.8164 452:0.8203 453:0.8477 454:0.8828 455:0.9141 456:0.9141 457:0.8867 458:0.6484 459:0.6133 460:0.6172 461:0.8867 462:0.9414 463:0.9375 464:0.9453 465:0.8438 466:0.7969 467:0.7812 468:0.7617 469:0.7305 470:0.6328 471:0.6914 472:0.4258 473:0.5078 474:0.7461 475:0.7188 476:0.6953 477:0.7266 478:0.7109 479:0.7031 480:0.6992 481:0.832 482:0.8242 483:0.8672 484:0.9023 485:0.918 486:0.918 487:0.7617 488:0.5977 489:0.5508 490:0.5234 491:0.9219 492:0.918 493:0.8906 494:0.8047 495:0.7812 496:0.7656 497:0.7617 498:0.7227 499:0.5977 500:0.5898 501:0.6562 502:0.4688 503:0.582 504:0.6914 505:0.7656 506:0.7188 507:0.7305 508:0.7227 509:0.6758 510:0.6992 511:0.8398 512:0.8203 513:0.8516 514:0.8867 515:0.8867 516:0.8242 517:0.6211 518:0.5547 519:0.4961 520:0.4844 521:0.875 522:0.8086 523:0.7695 524:0.7617 525:0.7461 526:0.7383 527:0.7305 528:0.6602 529:0.5 530:0.5156 531:0.5625 532:0.4258 533:0.4844 534:0.6172 535:0.7578 536:0.7461 537:0.7695 538:0.7422 539:0.7031 540:0.6992 541:0.5 542:0.8477 543:0.8477 544:0.8633 545:0.8125 546:0.7148 547:0.6172 548:0.4688 549:0.457 550:0.5156 551:0.7188 552:0.7227 553:0.7266 554:0.7266 555:0.707 556:0.707 557:0.6836 558:0.5312 559:0.4883 560:0.457 561:0.418 562:0.3945 563:0.4531 564:0.6992 565:0.8086 566:0.7891 567:0.8047 568:0.7578 569:0.7266 570:0.6836 571:0.5 572:0.8633 573:0.8203 574:0.8086 575:0.7969 576:0.6523 577:0.5391 578:0.4258 579:0.418 580:0.4805 581:0.5273 582:0.5117 583:0.3516 584:0.6602 585:0.6641 586:0.668 587:0.5664 588:0.2188 589:0.1055 590:0.3125 591:0.3711 592:0.3867 593:0.4531 594:0.5703 595:0.8125 596:0.8086 597:0.7812 598:0.7695 599:0.6953 600:0.6953 601:0.5 602:0.8672 603:0.7812 604:0.7617 605:0.6836 606:0.6016 607:0.4492 608:0.3945 609:0.4062 610:0.457 611:0.4023 612:0.3984 613:0.2539 614:0.3203 615:0.582 616:0.4297 617:0.3555 618:0.1094 619:0.1133 620:0.1914 621:0.375 622:0.3633 623:0.4531 624:0.5078 625:0.7109 626:0.8203 627:0.8125 628:0.793 629:0.7773 630:0.6992 631:0.5 632:0.8711 633:0.7617 634:0.7148 635:0.6367 636:0.5469 637:0.418 638:0.3828 639:0.4102 640:0.4648 641:0.4375 642:0.4922 643:0.375 644:0.3008 645:0.332 646:0.3438 647:0.1914 648:0.1367 649:0.1445 650:0.1289 651:0.2344 652:0.3906 653:0.4414 654:0.5234 655:0.582 656:0.8125 657:0.8086 658:0.7969 659:0.7617 660:0.7539 661:0.5 662:0.8594 663:0.7148 664:0.6758 665:0.6016 666:0.4844 667:0.3633 668:0.3633 669:0.418 670:0.4414 671:0.5273 672:0.6055 673:0.4648 674:0.1641 675:0.2344 676:0.1992 677:0.1133 678:0.1172 679:0.1094 680:0.168 681:0.2617 682:0.3164 683:0.4766 684:0.4883 685:0.5625 686:0.8242 687:0.8242 688:0.8164 689:0.7852 690:0.7695 691:0.5 692:0.5 693:0.707 694:0.6484 695:0.5703 696:0.4414 697:0.3398 698:0.3633 699:0.4531 700:0.5 701:0.6016 702:0.6133 703:0.4805 704:0.2109 705:0.1211 706:0.1367 707:0.07812 708:0.09375 709:0.1016 710:0.1562 711:0.2617 712:0.3477 713:0.4414 714:0.4844 715:0.5156 716:0.6328 717:0.832 718:0.8203 719:0.8164 720:0.5 721:0.5 722:0.5 723:0.668 724:0.6016 725:0.5547 726:0.3438 727:0.3242 728:0.3906 729:0.5117 730:0.5469 731:0.582 732:0.5664 733:0.2305 734:0.1719 735:0.08984 736:0.08984 737:0.0625 738:0.07422 739:0.08203 740:0.1211 741:0.2617 742:0.3711 743:0.4062 744:0.4453 745:0.4922 746:0.6328 747:0.8164 748:0.7305 749:0.8203 750:0.5 751:0.5 752:0.5 753:0.668 754:0.5898 755:0.5156 756:0.3242 757:0.3516 758:0.5 759:0.5078 760:0.5273 761:0.5156 762:0.3984 763:0.1758 764:0.125 765:0.0625 766:0.05469 767:0.05469 768:0.05078 769:0.05469 770:0.08203 771:0.1953 772:0.3711 773:0.4531 774:0.4336 775:0.4023 776:0.5508 777:0.8398 778:0.8398 779:0.7422 780:0.5 781:0.5 782:0.5 783:0.5 784:0.5742 785:0.4609 786:0.332 787:0.5078 788:0.5117 789:0.4531 790:0.332 791:0.2109 792:0.2188 793:0.1914 794:0.1914 795:0.05469 796:0.04688 797:0.04688 798:0.04688 799:0.05078 800:0.07422 801:0.1367 802:0.3125 803:0.4336 804:0.4375 805:0.4023 806:0.4258 807:0.6484 808:0.8438 809:0.5 810:0.5 811:0.5 812:0.5 813:0.5 814:0.5859 815:0.3984 816:0.3516 817:0.4961 818:0.4609 819:0.3008 820:0.2422 821:0.2344 822:0.2148 823:0.2227 824:0.2227 825:0.05859 826:0.04688 827:0.05078 828:0.04297 829:0.05078 830:0.0625 831:0.09766 832:0.1445 833:0.3281 834:0.4141 835:0.3906 836:0.418 837:0.5977 838:0.8477 839:0.5 840:0.5 841:0.5 842:0.5 843:0.5 844:0.5 845:0.3906 846:0.5039 847:0.4727 848:0.3672 849:0.2656 850:0.2188 851:0.2422 852:0.2344 853:0.4609 854:0.4492 855:0.125 856:0.0625 857:0.2227 858:0.1914 859:0.1211 860:0.08594 861:0.1055 862:0.1289 863:0.3047 864:0.4531 865:0.4141 866:0.4219 867:0.5156 868:0.5 869:0.5 870:0.5 871:0.5 872:0.5 873:0.5 874:0.5 875:0.3906 876:0.5156 877:0.4062 878:0.3008 879:0.2305 880:0.2422 881:0.2617 882:0.2578 883:0.25 884:0.2422 885:0.3711 886:0.2852 887:0.2227 888:0.2617 889:0.2188 890:0.1211 891:0.1992 892:0.25 893:0.3711 894:0.4102 895:0.4023 896:0.4023 897:0.4219 898:0.5 899:0.5 900:0.5 
26.32649659096292 1:0.5 2:0.5 3:0.4609 4:0.25 5:0.2031 6:0.1406 7:0.1289 8:0.1094 9:0.1289 10:0.168 11:0.2109 12:0.332 13:0.4648 14:0.6758 15:0.7031 16:0.6797 17:0.6914 18:0.6484 19:0.3438 20:0.2227 21:0.1992 22:0.1875 23:0.168 24:0.1523 25:0.1641 26:0.2422 27:0.3125 28:0.3008 29:0.2891 30:0.5 31:0.5 32:0.5 33:0.4648 34:0.2188 35:0.1562 36:0.1445 37:0.09375 38:0.1055 39:0.1133 40:0.1641 41:0.1953 42:0.2852 43:0.4805 44:0.6562 45:0.7109 46:0.7031 47:0.6914 48:0.4453 49:0.3398 50:0.2227 51:0.2031 52:0.1875 53:0.168 54:0.1562 55:0.1523 56:0.168 57:0.1211 58:0.1914 59:0.2578 60:0.5 61:0.5 62:0.3867 63:0.125 64:0.08203 65:0.0625 66:0.05859 67:0.06641 68:0.07422 69:0.1367 70:0.1484 71:0.2461 72:0.332 73:0.5039 74:0.6367 75:0.7461 76:0.7539 77:0.75 78:0.4922 79:0.2227 80:0.2148 81:0.1992 82:0.1875 83:0.168 84:0.1328 85:0.1016 86:0.04297 87:0.03516 88:0.02734 89:0.03125 90:0.07422 91:0.5 92:0.2031 93:0.1367 94:0.07812 95:0.0625 96:0.05859 97:0.06641 98:0.07031 99:0.08594 100:0.207 101:0.3086 102:0.3438 103:0.5508 104:0.75 105:0.8438 106:0.8281 107:0.793 108:0.7188 109:0.2227 110:0.2188 111:0.2031 112:0.1992 113:0.1445 114:0.1406 115:0.1758 116:0.04688 117:0.03906 118:0.03125 119:0.03906 120:0.03906 121:0.5 122:0.25 123:0.1992 124:0.08203 125:0.06641 126:0.0625 127:0.07422 128:0.07422 129:0.07812 130:0.2422 131:0.4336 132:0.5039 133:0.5742 134:0.9336 135:0.9297 136:0.918 137:0.8398 138:0.7812 139:0.2266 140:0.2344 141:0.293 142:0.1719 143:0.1445 144:0.1484 145:0.2148 146:0.05078 147:0.03906 148:0.03906 149:0.0625 150:0.05078 151:0.5 152:0.4492 153:0.1992 154:0.1367 155:0.1055 156:0.08203 157:0.1055 158:0.1562 159:0.2109 160:0.3125 161:0.3906 162:0.5273 163:0.6523 164:0.9492 165:0.9453 166:0.9336 167:0.8789 168:0.793 169:0.3633 170:0.3047 171:0.2656 172:0.293 173:0.1992 174:0.168 175:0.1562 176:0.1133 177:0.08203 178:0.07031 179:0.09375 180:0.08203 181:0.5 182:0.4766 183:0.3672 184:0.2031 185:0.1758 186:0.1758 187:0.2031 188:0.1992 189:0.2578 190:0.4375 191:0.4727 192:0.582 193:0.8594 194:0.957 195:0.9492 196:0.9453 197:0.9141 198:0.7891 199:0.4023 200:0.3633 201:0.3672 202:0.3281 203:0.3477 204:0.2461 205:0.2656 206:0.1914 207:0.1445 208:0.125 209:0.1562 210:0.1367 211:0.6484 212:0.5742 213:0.4141 214:0.3086 215:0.2383 216:0.2461 217:0.2773 218:0.2812 219:0.2773 220:0.4727 221:0.6289 222:0.7344 223:0.9141 224:0.9609 225:0.957 226:0.9531 227:0.9062 228:0.7969 229:0.4648 230:0.4023 231:0.3828 232:0.332 233:0.3477 234:0.3594 235:0.3438 236:0.2734 237:0.2227 238:0.2227 239:0.2969 240:0.2227 241:0.7148 242:0.6875 243:0.6523 244:0.543 245:0.3086 246:0.3047 247:0.3047 248:0.4062 249:0.4766 250:0.6289 251:0.7305 252:0.832 253:0.9453 254:0.9688 255:0.9648 256:0.9609 257:0.8906 258:0.7539 259:0.6797 260:0.4609 261:0.418 262:0.4219 263:0.3828 264:0.3789 265:0.3867 266:0.4375 267:0.4219 268:0.3164 269:0.3125 270:0.2773 271:0.8516 272:0.8008 273:0.5859 274:0.5508 275:0.418 276:0.5156 277:0.5117 278:0.4883 279:0.5938 280:0.6836 281:0.8008 282:0.918 283:0.9531 284:0.9727 285:0.9727 286:0.9648 287:0.8906 288:0.8086 289:0.6719 290:0.4883 291:0.4688 292:0.4844 293:0.4805 294:0.4727 295:0.4219 296:0.4648 297:0.4414 298:0.4609 299:0.4844 300:0.4766 301:0.8789 302:0.8867 303:0.8516 304:0.7266 305:0.7227 306:0.6055 307:0.6172 308:0.6406 309:0.6875 310:0.7383 311:0.8672 312:0.9219 313:0.9609 314:0.9766 315:0.9766 316:0.9688 317:0.9219 318:0.8164 319:0.7305 320:0.4805 321:0.4766 322:0.4961 323:0.5508 324:0.5234 325:0.4766 326:0.5234 327:0.6406 328:0.6992 329:0.5195 330:0.6328 331:0.8945 332:0.8945 333:0.8672 334:0.7656 335:0.7031 336:0.6992 337:0.7539 338:0.707 339:0.7148 340:0.7891 341:0.8672 342:0.9375 343:0.9648 344:0.9766 345:0.9766 346:0.9688 347:0.8945 348:0.8398 349:0.7852 350:0.5586 351:0.4688 352:0.4961 353:0.5742 354:0.5859 355:0.5547 356:0.5938 357:0.6289 358:0.7852 359:0.75 360:0.7695 361:0.8828 362:0.8711 363:0.8398 364:0.7617 365:0.7578 366:0.8164 367:0.8164 368:0.7891 369:0.8164 370:0.793 371:0.8672 372:0.9375 373:0.9648 374:0.9727 375:0.9727 376:0.9609 377:0.9141 378:0.8164 379:0.7773 380:0.5664 381:0.4492 382:0.4531 383:0.5547 384:0.582 385:0.6055 386:0.7383 387:0.7773 388:0.8047 389:0.7852 390:0.7617 391:0.832 392:0.8242 393:0.8203 394:0.8125 395:0.8125 396:0.8359 397:0.8242 398:0.8125 399:0.7617 400:0.7773 401:0.8438 402:0.9453 403:0.9609 404:0.9648 405:0.9609 406:0.9375 407:0.8398 408:0.8047 409:0.7578 410:0.4688 411:0.4492 412:0.4297 413:0.543 414:0.5898 415:0.5742 416:0.6406 417:0.6953 418:0.7422 419:0.7617 420:0.8047 421:0.8359 422:0.8516 423:0.875 424:0.875 425:0.8711 426:0.8633 427:0.8359 428:0.6875 429:0.6641 430:0.7852 431:0.8906 432:0.9414 433:0.9531 434:0.9531 435:0.918 436:0.8711 437:0.8203 438:0.7773 439:0.7461 440:0.5977 441:0.3984 442:0.3945 443:0.5703 444:0.6055 445:0.6172 446:0.5938 447:0.625 448:0.7344 449:0.75 450:0.7539 451:0.8555 452:0.8633 453:0.8906 454:0.9023 455:0.8906 456:0.8242 457:0.625 458:0.5977 459:0.5977 460:0.832 461:0.9219 462:0.9219 463:0.9336 464:0.9258 465:0.832 466:0.8086 467:0.7852 468:0.7656 469:0.7031 470:0.7188 471:0.6055 472:0.4219 473:0.5703 474:0.6133 475:0.6406 476:0.5977 477:0.6953 478:0.6992 479:0.707 480:0.7266 481:0.8672 482:0.8828 483:0.8984 484:0.9023 485:0.8984 486:0.6406 487:0.5781 488:0.5273 489:0.4766 490:0.8984 491:0.9102 492:0.9102 493:0.8516 494:0.8125 495:0.7969 496:0.7773 497:0.7617 498:0.6992 499:0.5156 500:0.6992 501:0.543 502:0.3945 503:0.6562 504:0.6172 505:0.7422 506:0.6289 507:0.6758 508:0.7188 509:0.6523 510:0.6953 511:0.8594 512:0.8711 513:0.875 514:0.8672 515:0.7656 516:0.6211 517:0.5156 518:0.4648 519:0.5039 520:0.8867 521:0.8594 522:0.8125 523:0.7852 524:0.7695 525:0.7656 526:0.7422 527:0.7109 528:0.5625 529:0.4883 530:0.5312 531:0.4922 532:0.4648 533:0.5352 534:0.6406 535:0.7578 536:0.7969 537:0.7383 538:0.7227 539:0.6758 540:0.6602 541:0.5 542:0.8516 543:0.8477 544:0.8438 545:0.6797 546:0.6016 547:0.4492 548:0.3438 549:0.4844 550:0.7695 551:0.7578 552:0.7656 553:0.75 554:0.7305 555:0.7305 556:0.668 557:0.6211 558:0.4688 559:0.457 560:0.4844 561:0.4297 562:0.4688 563:0.5156 564:0.5859 565:0.7773 566:0.8125 567:0.7656 568:0.6836 569:0.7891 570:0.6719 571:0.5 572:0.8086 573:0.8242 574:0.6797 575:0.6328 576:0.543 577:0.3945 578:0.3555 579:0.4258 580:0.5938 581:0.5859 582:0.6602 583:0.6797 584:0.6562 585:0.6836 586:0.6523 587:0.6016 588:0.3906 589:0.3477 590:0.4453 591:0.3945 592:0.332 593:0.4648 594:0.5703 595:0.8125 596:0.8242 597:0.7773 598:0.7617 599:0.6719 600:0.7617 601:0.5 602:0.7695 603:0.7578 604:0.6602 605:0.6055 606:0.3984 607:0.3594 608:0.3828 609:0.3945 610:0.3906 611:0.3906 612:0.2031 613:0.4766 614:0.6172 615:0.625 616:0.3203 617:0.1406 618:0.08984 619:0.1094 620:0.2773 621:0.3555 622:0.3203 623:0.4258 624:0.4844 625:0.832 626:0.8203 627:0.8047 628:0.7031 629:0.707 630:0.7031 631:0.5 632:0.7539 633:0.6992 634:0.6406 635:0.4727 636:0.3672 637:0.3555 638:0.375 639:0.3984 640:0.332 641:0.3047 642:0.2188 643:0.2617 644:0.4336 645:0.3125 646:0.2852 647:0.1328 648:0.1055 649:0.1328 650:0.2109 651:0.2695 652:0.3477 653:0.4023 654:0.4297 655:0.8203 656:0.832 657:0.7656 658:0.75 659:0.7344 660:0.7148 661:0.5 662:0.7383 663:0.6641 664:0.6172 665:0.4414 666:0.3281 667:0.3789 668:0.3789 669:0.3945 670:0.4219 671:0.4688 672:0.2852 673:0.2227 674:0.3086 675:0.2266 676:0.1484 677:0.1094 678:0.1211 679:0.1211 680:0.1562 681:0.2617 682:0.3047 683:0.3984 684:0.5625 685:0.7852 686:0.8164 687:0.8203 688:0.7969 689:0.7227 690:0.7188 691:0.5 692:0.5 693:0.6406 694:0.5586 695:0.332 696:0.3008 697:0.3672 698:0.3984 699:0.4297 700:0.5859 701:0.6055 702:0.5 703:0.1484 704:0.1406 705:0.1992 706:0.09375 707:0.08203 708:0.1211 709:0.1289 710:0.1875 711:0.2812 712:0.3203 713:0.4609 714:0.5 715:0.6172 716:0.8164 717:0.8281 718:0.7617 719:0.7617 720:0.5 721:0.5 722:0.5 723:0.582 724:0.4414 725:0.3047 726:0.3008 727:0.3438 728:0.4375 729:0.5234 730:0.5742 731:0.5703 732:0.3945 733:0.1328 734:0.1055 735:0.1289 736:0.05859 737:0.0625 738:0.08594 739:0.1328 740:0.2227 741:0.293 742:0.332 743:0.3906 744:0.3867 745:0.5 746:0.8359 747:0.8281 748:0.8008 749:0.7109 750:0.5 751:0.5 752:0.5 753:0.5938 754:0.3789 755:0.293 756:0.332 757:0.4414 758:0.4688 759:0.5391 760:0.5664 761:0.2734 762:0.1719 763:0.1094 764:0.07422 765:0.0625 766:0.04688 767:0.04688 768:0.05469 769:0.08594 770:0.2344 771:0.3086 772:0.3086 773:0.3867 774:0.4141 775:0.4414 776:0.7617 777:0.8203 778:0.8125 779:0.75 780:0.5 781:0.5 782:0.5 783:0.5 784:0.3242 785:0.3086 786:0.4805 787:0.4609 788:0.4844 789:0.4805 790:0.4102 791:0.2266 792:0.1602 793:0.08984 794:0.05859 795:0.04688 796:0.04297 797:0.04297 798:0.05078 799:0.07031 800:0.1523 801:0.2617 802:0.3555 803:0.4062 804:0.3516 805:0.4023 806:0.7617 807:0.7227 808:0.7031 809:0.5 810:0.5 811:0.5 812:0.5 813:0.5 814:0.3086 815:0.5391 816:0.4961 817:0.4648 818:0.418 819:0.2227 820:0.2109 821:0.1914 822:0.1836 823:0.1094 824:0.05078 825:0.04688 826:0.04688 827:0.04297 828:0.05469 829:0.05469 830:0.07031 831:0.1992 832:0.2969 833:0.3477 834:0.2969 835:0.3789 836:0.5391 837:0.8164 838:0.8086 839:0.5 840:0.5 841:0.5 842:0.5 843:0.5 844:0.5 845:0.5469 846:0.5039 847:0.3984 848:0.1992 849:0.1836 850:0.1953 851:0.1719 852:0.3242 853:0.1523 854:0.05469 855:0.05078 856:0.05469 857:0.05078 858:0.05469 859:0.05859 860:0.07031 861:0.1914 862:0.2422 863:0.375 864:0.3672 865:0.3672 866:0.5039 867:0.8164 868:0.5 869:0.5 870:0.5 871:0.5 872:0.5 873:0.5 874:0.5 875:0.5078 876:0.4727 877:0.2031 878:0.1914 879:0.1953 880:0.1914 881:0.1992 882:0.3828 883:0.3867 884:0.05859 885:0.05469 886:0.07031 887:0.05859 888:0.05859 889:0.05859 890:0.07031 891:0.07812 892:0.2188 893:0.3438 894:0.3789 895:0.3906 896:0.4414 897:0.7422 898:0.5 899:0.5 900:0.5 
15.3526550860923 1:0.5 2:0.5 3:0.3164 4:0.25 5:0.2227 6:0.1719 7:0.1055 8:0.08594 9:0.08594 10:0.1172 11:0.1602 12:0.2617 13:0.3086 14:0.5547 15:0.6562 16:0.6367 17:0.5078 18:0.4258 19:0.2617 20:0.2305 21:0.1914 22:0.1797 23:0.1562 24:0.1484 25:0.2109 26:0.2383 27:0.25 28:0.2617 29:0.2422 30:0.5 31:0.5 32:0.5 33:0.3008 34:0.2812 35:0.2188 36:0.1406 37:0.08984 38:0.07812 39:0.08203 40:0.1016 41:0.125 42:0.1953 43:0.3203 44:0.5977 45:0.6797 46:0.668 47:0.5156 48:0.4375 49:0.25 50:0.1953 51:0.1875 52:0.1602 53:0.1328 54:0.1523 55:0.1719 56:0.2148 57:0.1953 58:0.2188 59:0.2148 60:0.5 61:0.5 62:0.3242 63:0.332 64:0.293 65:0.09375 66:0.05859 67:0.05859 68:0.0625 69:0.07812 70:0.1016 71:0.1367 72:0.2148 73:0.3594 74:0.5625 75:0.7031 76:0.7109 77:0.7578 78:0.4023 79:0.2227 80:0.2188 81:0.1602 82:0.1484 83:0.125 84:0.09766 85:0.05469 86:0.03516 87:0.02734 88:0.03125 89:0.06641 90:0.2031 91:0.5 92:0.3789 93:0.1172 94:0.0625 95:0.05469 96:0.04688 97:0.04688 98:0.05469 99:0.07031 100:0.1094 101:0.168 102:0.2969 103:0.3672 104:0.6094 105:0.8203 106:0.8516 107:0.8203 108:0.6875 109:0.2383 110:0.2031 111:0.1484 112:0.1406 113:0.1016 114:0.1367 115:0.05859 116:0.03906 117:0.03125 118:0.03516 119:0.0625 120:0.07031 121:0.5 122:0.1953 123:0.1172 124:0.09375 125:0.05859 126:0.05078 127:0.05078 128:0.07031 129:0.07031 130:0.08984 131:0.332 132:0.3516 133:0.5 134:0.6836 135:0.9258 136:0.8984 137:0.8594 138:0.7852 139:0.2305 140:0.1797 141:0.2383 142:0.1367 143:0.1289 144:0.1211 145:0.1484 146:0.04688 147:0.04297 148:0.04688 149:0.05078 150:0.05078 151:0.5 152:0.2617 153:0.168 154:0.1172 155:0.08594 156:0.0625 157:0.06641 158:0.07422 159:0.09766 160:0.2305 161:0.3125 162:0.4414 163:0.5586 164:0.9297 165:0.9375 166:0.9375 167:0.8984 168:0.8203 169:0.3828 170:0.2227 171:0.2578 172:0.1875 173:0.168 174:0.1562 175:0.1328 176:0.09766 177:0.08594 178:0.09766 179:0.07812 180:0.09766 181:0.5 182:0.4922 183:0.3906 184:0.1914 185:0.1484 186:0.1406 187:0.125 188:0.1836 189:0.2109 190:0.2852 191:0.4023 192:0.5469 193:0.6875 194:0.9375 195:0.9492 196:0.9492 197:0.9336 198:0.8008 199:0.457 200:0.2852 201:0.2539 202:0.2656 203:0.2656 204:0.2891 205:0.1641 206:0.1562 207:0.1211 208:0.1797 209:0.2031 210:0.1641 211:0.6172 212:0.543 213:0.5 214:0.332 215:0.2578 216:0.2266 217:0.2305 218:0.2344 219:0.2891 220:0.3477 221:0.5469 222:0.6367 223:0.8242 224:0.9453 225:0.9609 226:0.957 227:0.9258 228:0.8203 229:0.5664 230:0.3125 231:0.3008 232:0.3281 233:0.3203 234:0.3242 235:0.3516 236:0.3828 237:0.3438 238:0.3047 239:0.2422 240:0.2344 241:0.7539 242:0.625 243:0.6211 244:0.4609 245:0.4102 246:0.2656 247:0.25 248:0.2812 249:0.3672 250:0.4414 251:0.6367 252:0.7695 253:0.8906 254:0.9609 255:0.9688 256:0.9648 257:0.9297 258:0.832 259:0.6484 260:0.4023 261:0.4141 262:0.4023 263:0.4023 264:0.3438 265:0.3867 266:0.3789 267:0.3906 268:0.3945 269:0.4102 270:0.4336 271:0.8945 272:0.7773 273:0.6172 274:0.5156 275:0.375 276:0.332 277:0.418 278:0.4414 279:0.4805 280:0.5625 281:0.7031 282:0.8633 283:0.9414 284:0.9688 285:0.9727 286:0.9727 287:0.9531 288:0.8477 289:0.7383 290:0.5273 291:0.457 292:0.4688 293:0.4961 294:0.4453 295:0.4805 296:0.4375 297:0.4023 298:0.4961 299:0.457 300:0.4648 301:0.9102 302:0.9062 303:0.8984 304:0.8242 305:0.7266 306:0.6328 307:0.6016 308:0.5625 309:0.6211 310:0.6953 311:0.7344 312:0.9062 313:0.9531 314:0.9727 315:0.9766 316:0.9766 317:0.957 318:0.8594 319:0.8203 320:0.6523 321:0.4492 322:0.5 323:0.5664 324:0.5977 325:0.5352 326:0.5352 327:0.6016 328:0.7109 329:0.7266 330:0.7266 331:0.9141 332:0.9141 333:0.9062 334:0.8789 335:0.8125 336:0.6641 337:0.7109 338:0.7148 339:0.75 340:0.7656 341:0.8086 342:0.9062 343:0.9609 344:0.9727 345:0.9766 346:0.9766 347:0.9609 348:0.8438 349:0.8086 350:0.7148 351:0.4883 352:0.4688 353:0.5234 354:0.6055 355:0.6055 356:0.6133 357:0.6367 358:0.6562 359:0.8047 360:0.7656 361:0.9062 362:0.9023 363:0.9062 364:0.8789 365:0.7617 366:0.7305 367:0.7891 368:0.7852 369:0.7891 370:0.7891 371:0.8359 372:0.8906 373:0.957 374:0.9688 375:0.9766 376:0.9727 377:0.9453 378:0.8281 379:0.8086 380:0.6719 381:0.4688 382:0.4766 383:0.5586 384:0.6328 385:0.6172 386:0.6367 387:0.6953 388:0.7852 389:0.7969 390:0.7344 391:0.8945 392:0.8828 393:0.8906 394:0.8867 395:0.832 396:0.8125 397:0.7969 398:0.7891 399:0.7773 400:0.7539 401:0.8203 402:0.8984 403:0.9531 404:0.9648 405:0.9648 406:0.9531 407:0.8867 408:0.8125 409:0.7617 410:0.7266 411:0.4453 412:0.4727 413:0.5742 414:0.625 415:0.625 416:0.6602 417:0.668 418:0.7461 419:0.8125 420:0.6836 421:0.8789 422:0.8828 423:0.8984 424:0.9023 425:0.8828 426:0.8438 427:0.8047 428:0.7734 429:0.6758 430:0.668 431:0.8789 432:0.9375 433:0.9453 434:0.9531 435:0.9336 436:0.8555 437:0.8242 438:0.7812 439:0.7539 440:0.7109 441:0.5938 442:0.4766 443:0.6016 444:0.6328 445:0.6602 446:0.6523 447:0.7344 448:0.6914 449:0.6992 450:0.7539 451:0.8789 452:0.8984 453:0.9023 454:0.9102 455:0.8984 456:0.8945 457:0.7422 458:0.6406 459:0.5547 460:0.6211 461:0.9297 462:0.9375 463:0.9219 464:0.8945 465:0.832 466:0.7891 467:0.7891 468:0.75 469:0.7227 470:0.6602 471:0.7383 472:0.5 473:0.5078 474:0.6602 475:0.6641 476:0.6328 477:0.7539 478:0.6602 479:0.7461 480:0.7227 481:0.8867 482:0.8867 483:0.9062 484:0.9102 485:0.9023 486:0.8945 487:0.6523 488:0.5703 489:0.5078 490:0.5664 491:0.9297 492:0.9297 493:0.8633 494:0.7969 495:0.8008 496:0.7656 497:0.7461 498:0.7305 499:0.5195 500:0.4922 501:0.6172 502:0.4961 503:0.4883 504:0.6836 505:0.6523 506:0.7109 507:0.6758 508:0.6992 509:0.7578 510:0.6953 511:0.8711 512:0.8789 513:0.8867 514:0.8828 515:0.8555 516:0.7227 517:0.6133 518:0.5117 519:0.4805 520:0.5625 521:0.875 522:0.8164 523:0.7812 524:0.7695 525:0.7344 526:0.7344 527:0.7227 528:0.6836 529:0.5117 530:0.4609 531:0.5039 532:0.4609 533:0.457 534:0.6094 535:0.7188 536:0.7773 537:0.7773 538:0.7656 539:0.7227 540:0.7031 541:0.5 542:0.8633 543:0.8438 544:0.8164 545:0.8047 546:0.6602 547:0.5859 548:0.457 549:0.4336 550:0.5078 551:0.668 552:0.6992 553:0.6914 554:0.6992 555:0.6992 556:0.6875 557:0.6523 558:0.5 559:0.3672 560:0.4922 561:0.457 562:0.3867 563:0.4805 564:0.6445 565:0.7852 566:0.8125 567:0.7422 568:0.7578 569:0.7031 570:0.7344 571:0.5 572:0.8164 573:0.7852 574:0.7695 575:0.7578 576:0.6641 577:0.5039 578:0.3828 579:0.3984 580:0.457 581:0.5547 582:0.5078 583:0.168 584:0.6211 585:0.6445 586:0.6328 587:0.6406 588:0.1875 589:0.1211 590:0.2305 591:0.3633 592:0.3555 593:0.4375 594:0.6328 595:0.7969 596:0.8203 597:0.793 598:0.7383 599:0.7031 600:0.668 601:0.5 602:0.7969 603:0.7695 604:0.7109 605:0.6719 606:0.5508 607:0.4102 608:0.3594 609:0.4297 610:0.4297 611:0.3984 612:0.3203 613:0.1875 614:0.3398 615:0.5117 616:0.3516 617:0.2344 618:0.1367 619:0.1445 620:0.2617 621:0.2852 622:0.332 623:0.3867 624:0.5469 625:0.7461 626:0.8125 627:0.8086 628:0.7461 629:0.7812 630:0.668 631:0.5 632:0.7617 633:0.7305 634:0.6992 635:0.625 636:0.4688 637:0.4102 638:0.3828 639:0.4414 640:0.4414 641:0.4375 642:0.4453 643:0.3008 644:0.3203 645:0.3477 646:0.3203 647:0.1758 648:0.1641 649:0.1641 650:0.2031 651:0.25 652:0.3438 653:0.5273 654:0.5352 655:0.7891 656:0.8203 657:0.8242 658:0.7812 659:0.7695 660:0.7109 661:0.5 662:0.7266 663:0.6953 664:0.6289 665:0.5703 666:0.457 667:0.3633 668:0.4375 669:0.457 670:0.4922 671:0.6172 672:0.625 673:0.5391 674:0.1758 675:0.2695 676:0.207 677:0.1211 678:0.1562 679:0.1602 680:0.1875 681:0.2383 682:0.3281 683:0.5273 684:0.5234 685:0.5508 686:0.8203 687:0.8203 688:0.8047 689:0.7305 690:0.7891 691:0.5 692:0.5 693:0.6641 694:0.582 695:0.5312 696:0.3594 697:0.3438 698:0.4102 699:0.4844 700:0.6016 701:0.6211 702:0.6016 703:0.3945 704:0.25 705:0.1719 706:0.1328 707:0.08594 708:0.1172 709:0.1602 710:0.2109 711:0.25 712:0.375 713:0.5156 714:0.5156 715:0.5352 716:0.6953 717:0.8281 718:0.8164 719:0.7812 720:0.5 721:0.5 722:0.5 723:0.6445 724:0.5977 725:0.4766 726:0.3242 727:0.3672 728:0.3398 729:0.543 730:0.6133 731:0.6016 732:0.5312 733:0.2461 734:0.168 735:0.07031 736:0.09375 737:0.06641 738:0.05859 739:0.08203 740:0.2148 741:0.2344 742:0.3789 743:0.418 744:0.4492 745:0.5156 746:0.8125 747:0.8164 748:0.8047 749:0.7852 750:0.5 751:0.5 752:0.5 753:0.6328 754:0.4844 755:0.4141 756:0.3516 757:0.4453 758:0.5078 759:0.5625 760:0.5664 761:0.4688 762:0.3125 763:0.1758 764:0.09375 765:0.05469 766:0.05469 767:0.05078 768:0.05078 769:0.0625 770:0.1289 771:0.2695 772:0.3281 773:0.4492 774:0.4375 775:0.4023 776:0.5391 777:0.8086 778:0.7852 779:0.7656 780:0.5 781:0.5 782:0.5 783:0.5 784:0.5195 785:0.3711 786:0.4336 787:0.5352 788:0.5 789:0.4922 790:0.3008 791:0.3047 792:0.2344 793:0.2578 794:0.08984 795:0.05078 796:0.04688 797:0.04688 798:0.04688 799:0.05469 800:0.07031 801:0.125 802:0.2852 803:0.4102 804:0.4453 805:0.4258 806:0.4414 807:0.7617 808:0.7812 809:0.5 810:0.5 811:0.5 812:0.5 813:0.5 814:0.4688 815:0.4102 816:0.5391 817:0.4883 818:0.375 819:0.2969 820:0.2031 821:0.3477 822:0.2148 823:0.2695 824:0.293 825:0.05469 826:0.04688 827:0.0625 828:0.05078 829:0.0625 830:0.07031 831:0.08984 832:0.2344 833:0.3555 834:0.4062 835:0.4453 836:0.4219 837:0.5352 838:0.7852 839:0.5 840:0.5 841:0.5 842:0.5 843:0.5 844:0.5 845:0.4414 846:0.5391 847:0.4727 848:0.2773 849:0.2109 850:0.2188 851:0.2461 852:0.2617 853:0.4219 854:0.4336 855:0.05859 856:0.05859 857:0.25 858:0.2266 859:0.06641 860:0.07422 861:0.08203 862:0.125 863:0.1953 864:0.4414 865:0.4102 866:0.4453 867:0.4219 868:0.5 869:0.5 870:0.5 871:0.5 872:0.5 873:0.5 874:0.5 875:0.4844 876:0.4805 877:0.3438 878:0.25 879:0.1875 880:0.2422 881:0.3398 882:0.2812 883:0.293 884:0.3008 885:0.293 886:0.2969 887:0.2812 888:0.2852 889:0.1641 890:0.07422 891:0.1328 892:0.1875 893:0.2383 894:0.4922 895:0.375 896:0.4336 897:0.4141 898:0.5 899:0.5 900:0.5 
-44.59107104166746 1:0.5 2:0.5 3:0.4102 4:0.3672 5:0.3047 6:0.2617 7:0.09375 8:0.05859 9:0.05078 10:0.05469 11:0.08594 12:0.1094 13:0.1523 14:0.2266 15:0.3906 16:0.3984 17:0.3906 18:0.2891 19:0.2031 20:0.1758 21:0.09375 22:0.07031 23:0.05078 24:0.04688 25:0.05469 26:0.08594 27:0.125 28:0.2109 29:0.1914 30:0.5 31:0.5 32:0.5 33:0.4219 34:0.3945 35:0.3125 36:0.2344 37:0.07812 38:0.05078 39:0.05078 40:0.05078 41:0.07422 42:0.09766 43:0.1484 44:0.1914 45:0.3828 46:0.4023 47:0.4023 48:0.3672 49:0.2617 50:0.1602 51:0.09766 52:0.05859 53:0.05078 54:0.04688 55:0.0625 56:0.1016 57:0.1914 58:0.2539 59:0.2344 60:0.5 61:0.5 62:0.4727 63:0.4336 64:0.1758 65:0.1602 66:0.04688 67:0.03516 68:0.03516 69:0.03906 70:0.04688 71:0.06641 72:0.09375 73:0.1523 74:0.3359 75:0.4375 76:0.4883 77:0.457 78:0.4375 79:0.3555 80:0.1992 81:0.08984 82:0.05469 83:0.04297 84:0.04297 85:0.04297 86:0.05859 87:0.09375 88:0.2305 89:0.2422 90:0.2852 91:0.5 92:0.4375 93:0.1758 94:0.09766 95:0.05859 96:0.04297 97:0.03516 98:0.03516 99:0.04297 100:0.05078 101:0.07031 102:0.08203 103:0.1367 104:0.3828 105:0.6953 106:0.7617 107:0.7852 108:0.4961 109:0.4062 110:0.1602 111:0.07422 112:0.05078 113:0.04297 114:0.03516 115:0.03516 116:0.04297 117:0.05469 118:0.1172 119:0.1875 120:0.2891 121:0.5 122:0.3164 123:0.1602 124:0.125 125:0.3242 126:0.05078 127:0.04688 128:0.04297 129:0.08203 130:0.08594 131:0.08594 132:0.1016 133:0.1523 134:0.4727 135:0.7539 136:0.8516 137:0.9297 138:0.8047 139:0.3906 140:0.1211 141:0.08594 142:0.07422 143:0.05469 144:0.04297 145:0.04297 146:0.04688 147:0.2891 148:0.1016 149:0.1836 150:0.2617 151:0.5 152:0.3398 153:0.3008 154:0.3516 155:0.3477 156:0.07031 157:0.05078 158:0.05078 159:0.1328 160:0.08594 161:0.1055 162:0.1172 163:0.2266 164:0.5703 165:0.8281 166:0.9531 167:0.9492 168:0.8828 169:0.3828 170:0.125 171:0.08984 172:0.08984 173:0.07031 174:0.05078 175:0.05078 176:0.05859 177:0.3281 178:0.2656 179:0.1523 180:0.2969 181:0.5 182:0.4961 183:0.4531 184:0.3789 185:0.3359 186:0.1602 187:0.07422 188:0.1016 189:0.1523 190:0.1367 191:0.1562 192:0.2539 193:0.4336 194:0.7539 195:0.9609 196:0.9648 197:0.957 198:0.9453 199:0.4883 200:0.2188 201:0.1289 202:0.08984 203:0.1094 204:0.06641 205:0.07031 206:0.08594 207:0.2812 208:0.2656 209:0.2969 210:0.3242 211:0.7109 212:0.6953 213:0.5117 214:0.4023 215:0.3555 216:0.3398 217:0.168 218:0.207 219:0.1914 220:0.2188 221:0.2539 222:0.3828 223:0.6328 224:0.9336 225:0.9688 226:0.9688 227:0.9648 228:0.9453 229:0.6562 230:0.2734 231:0.1602 232:0.1406 233:0.1641 234:0.168 235:0.1289 236:0.1641 237:0.3008 238:0.3164 239:0.4102 240:0.4531 241:0.7539 242:0.7227 243:0.5195 244:0.4219 245:0.3867 246:0.3477 247:0.2734 248:0.25 249:0.2852 250:0.3086 251:0.3633 252:0.6953 253:0.8477 254:0.957 255:0.9688 256:0.9727 257:0.9688 258:0.8984 259:0.6562 260:0.4883 261:0.2578 262:0.2266 263:0.2344 264:0.2422 265:0.2656 266:0.3008 267:0.3398 268:0.3828 269:0.4531 270:0.4844 271:0.8516 272:0.7969 273:0.7109 274:0.5 275:0.4062 276:0.3789 277:0.375 278:0.3672 279:0.3633 280:0.3906 281:0.6484 282:0.8086 283:0.8945 284:0.9609 285:0.9727 286:0.9727 287:0.9688 288:0.9102 289:0.6914 290:0.5352 291:0.4062 292:0.3828 293:0.2969 294:0.3516 295:0.3555 296:0.3242 297:0.4297 298:0.4727 299:0.5156 300:0.5703 301:0.875 302:0.875 303:0.7852 304:0.7305 305:0.5352 306:0.4336 307:0.4258 308:0.4219 309:0.4961 310:0.7148 311:0.7891 312:0.8672 313:0.9336 314:0.9648 315:0.9766 316:0.9766 317:0.9648 318:0.9219 319:0.6992 320:0.6484 321:0.5898 322:0.457 323:0.4336 324:0.4023 325:0.4336 326:0.4492 327:0.5547 328:0.6289 329:0.625 330:0.6367 331:0.8828 332:0.8789 333:0.8438 334:0.7773 335:0.7539 336:0.7422 337:0.7188 338:0.7227 339:0.8242 340:0.7812 341:0.8008 342:0.8594 343:0.9492 344:0.9688 345:0.9766 346:0.9727 347:0.9648 348:0.9375 349:0.7812 350:0.7148 351:0.6289 352:0.6055 353:0.4883 354:0.4844 355:0.5508 356:0.625 357:0.6523 358:0.6641 359:0.6406 360:0.7266 361:0.875 362:0.8672 363:0.8398 364:0.8359 365:0.8086 366:0.8281 367:0.8516 368:0.8281 369:0.8555 370:0.7969 371:0.8359 372:0.9023 373:0.957 374:0.9688 375:0.9727 376:0.9688 377:0.9531 378:0.9258 379:0.8242 380:0.7188 381:0.6406 382:0.707 383:0.6406 384:0.6406 385:0.6328 386:0.6719 387:0.6641 388:0.7383 389:0.7891 390:0.8125 391:0.8633 392:0.8672 393:0.8672 394:0.8789 395:0.8828 396:0.8828 397:0.8594 398:0.8359 399:0.8008 400:0.8086 401:0.875 402:0.9453 403:0.9609 404:0.9688 405:0.9688 406:0.9609 407:0.9453 408:0.918 409:0.8477 410:0.7656 411:0.6797 412:0.707 413:0.7578 414:0.7109 415:0.6914 416:0.7461 417:0.8125 418:0.7617 419:0.7812 420:0.8164 421:0.8516 422:0.8672 423:0.875 424:0.875 425:0.8789 426:0.8711 427:0.8438 428:0.8047 429:0.7969 430:0.8164 431:0.9258 432:0.9453 433:0.957 434:0.9609 435:0.957 436:0.9453 437:0.9219 438:0.8789 439:0.8555 440:0.7734 441:0.6797 442:0.6875 443:0.7656 444:0.75 445:0.793 446:0.7812 447:0.8203 448:0.8203 449:0.8242 450:0.8164 451:0.8594 452:0.8633 453:0.8711 454:0.875 455:0.8672 456:0.8438 457:0.8008 458:0.7617 459:0.7578 460:0.8086 461:0.9297 462:0.9375 463:0.9453 464:0.9492 465:0.9414 466:0.9297 467:0.8945 468:0.8594 469:0.8398 470:0.8086 471:0.7148 472:0.7031 473:0.7539 474:0.7891 475:0.8164 476:0.8125 477:0.8281 478:0.7969 479:0.8047 480:0.8008 481:0.8438 482:0.8633 483:0.8633 484:0.8516 485:0.8242 486:0.8008 487:0.7344 488:0.7109 489:0.7383 490:0.9102 491:0.9219 492:0.9258 493:0.9336 494:0.9297 495:0.9219 496:0.8828 497:0.8516 498:0.8359 499:0.8203 500:0.8047 501:0.7266 502:0.6953 503:0.75 504:0.7969 505:0.8242 506:0.8242 507:0.8359 508:0.8281 509:0.7695 510:0.7773 511:0.8086 512:0.832 513:0.8359 514:0.8125 515:0.7734 516:0.7383 517:0.6719 518:0.6289 519:0.7344 520:0.8984 521:0.9023 522:0.8555 523:0.8594 524:0.8906 525:0.8398 526:0.8438 527:0.832 528:0.8203 529:0.8125 530:0.7969 531:0.7109 532:0.625 533:0.7461 534:0.8203 535:0.8359 536:0.8398 537:0.8398 538:0.8359 539:0.7344 540:0.7266 541:0.5 542:0.8125 543:0.7734 544:0.7578 545:0.7305 546:0.6602 547:0.5742 548:0.5547 549:0.6875 550:0.6953 551:0.7383 552:0.7578 553:0.7656 554:0.793 555:0.7891 556:0.7773 557:0.793 558:0.7969 559:0.7852 560:0.7695 561:0.7188 562:0.5547 563:0.6914 564:0.7734 565:0.832 566:0.8398 567:0.8398 568:0.832 569:0.7188 570:0.6016 571:0.5 572:0.75 573:0.7266 574:0.7031 575:0.6562 576:0.5938 577:0.5469 578:0.5273 579:0.6055 580:0.4844 581:0.5 582:0.6445 583:0.6797 584:0.707 585:0.6836 586:0.707 587:0.7422 588:0.7031 589:0.5469 590:0.5312 591:0.5352 592:0.5352 593:0.5938 594:0.7031 595:0.8047 596:0.8359 597:0.832 598:0.8281 599:0.7266 600:0.6758 601:0.5 602:0.7109 603:0.6953 604:0.6484 605:0.5625 606:0.5352 607:0.5547 608:0.5273 609:0.4375 610:0.3867 611:0.2578 612:0.4141 613:0.4727 614:0.4883 615:0.5195 616:0.5117 617:0.4922 618:0.4961 619:0.4492 620:0.4141 621:0.4805 622:0.5742 623:0.5859 624:0.6289 625:0.6797 626:0.8164 627:0.707 628:0.7305 629:0.6836 630:0.5859 631:0.5 632:0.6836 633:0.6445 634:0.5781 635:0.5391 636:0.5195 637:0.5586 638:0.582 639:0.4609 640:0.2891 641:0.2656 642:0.2383 643:0.2734 644:0.3477 645:0.4609 646:0.457 647:0.4688 648:0.3203 649:0.2148 650:0.3203 651:0.4492 652:0.5312 653:0.5469 654:0.6328 655:0.7344 656:0.7383 657:0.6836 658:0.6758 659:0.6133 660:0.5742 661:0.5 662:0.6406 663:0.5898 664:0.5234 665:0.5391 666:0.5664 667:0.6055 668:0.5938 669:0.5703 670:0.2891 671:0.2617 672:0.2734 673:0.2656 674:0.3164 675:0.3008 676:0.293 677:0.3047 678:0.2695 679:0.1797 680:0.3125 681:0.4062 682:0.4844 683:0.4961 684:0.5781 685:0.6445 686:0.6758 687:0.7031 688:0.6641 689:0.6211 690:0.5039 691:0.5 692:0.5 693:0.582 694:0.5469 695:0.5781 696:0.6133 697:0.6133 698:0.6133 699:0.6055 700:0.3477 701:0.2734 702:0.2617 703:0.2734 704:0.2734 705:0.2578 706:0.2617 707:0.2461 708:0.2109 709:0.2031 710:0.3008 711:0.4375 712:0.4766 713:0.5 714:0.5664 715:0.6055 716:0.6055 717:0.6914 718:0.6602 719:0.5312 720:0.5 721:0.5 722:0.5 723:0.5898 724:0.5625 725:0.6094 726:0.625 727:0.6133 728:0.6016 729:0.4961 730:0.4062 731:0.3047 732:0.2305 733:0.2109 734:0.2227 735:0.2344 736:0.1797 737:0.1992 738:0.1562 739:0.1836 740:0.2852 741:0.418 742:0.457 743:0.4883 744:0.5195 745:0.5703 746:0.6172 747:0.6016 748:0.5859 749:0.4805 750:0.5 751:0.5 752:0.5 753:0.5859 754:0.6094 755:0.5938 756:0.5977 757:0.6016 758:0.5273 759:0.4414 760:0.3047 761:0.2695 762:0.2109 763:0.1719 764:0.168 765:0.1484 766:0.1133 767:0.125 768:0.1172 769:0.1641 770:0.2305 771:0.3945 772:0.4102 773:0.457 774:0.4375 775:0.5508 776:0.5586 777:0.5586 778:0.5547 779:0.3984 780:0.5 781:0.5 782:0.5 783:0.5 784:0.4844 785:0.4531 786:0.5039 787:0.5 788:0.4922 789:0.3828 790:0.2656 791:0.207 792:0.1875 793:0.168 794:0.1367 795:0.1445 796:0.1094 797:0.1094 798:0.1133 799:0.1289 800:0.1719 801:0.3594 802:0.3633 803:0.375 804:0.3789 805:0.4688 806:0.5391 807:0.5547 808:0.5391 809:0.5 810:0.5 811:0.5 812:0.5 813:0.5 814:0.3984 815:0.3555 816:0.3984 817:0.4023 818:0.3086 819:0.2773 820:0.2383 821:0.2109 822:0.1836 823:0.1445 824:0.1484 825:0.1484 826:0.1016 827:0.1016 828:0.1016 829:0.1016 830:0.1406 831:0.1992 832:0.2773 833:0.2656 834:0.2695 835:0.3789 836:0.5 837:0.5156 838:0.5039 839:0.5 840:0.5 841:0.5 842:0.5 843:0.5 844:0.5 845:0.3008 846:0.3242 847:0.3008 848:0.2773 849:0.2695 850:0.2461 851:0.2422 852:0.2578 853:0.1484 854:0.1523 855:0.1602 856:0.2383 857:0.125 858:0.1133 859:0.1367 860:0.1602 861:0.1758 862:0.1914 863:0.25 864:0.2383 865:0.3203 866:0.4609 867:0.5 868:0.5 869:0.5 870:0.5 871:0.5 872:0.5 873:0.5 874:0.5 875:0.2852 876:0.3047 877:0.3008 878:0.2891 879:0.3008 880:0.2969 881:0.3594 882:0.3438 883:0.2578 884:0.3008 885:0.293 886:0.3125 887:0.2656 888:0.2266 889:0.1914 890:0.1992 891:0.1758 892:0.1992 893:0.2344 894:0.2383 895:0.3008 896:0.4453 897:0.4492 898:0.5 899:0.5 900:0.5 
-19.70875271589279 1:0.5 2:0.5 3:0.2891 4:0.25 5:0.168 6:0.09766 7:0.07031 8:0.04688 9:0.05469 10:0.05469 11:0.08203 12:0.1289 13:0.168 14:0.4492 15:0.4492 16:0.4297 17:0.2734 18:0.2656 19:0.1484 20:0.1211 21:0.08203 22:0.05078 23:0.04688 24:0.05469 25:0.07422 26:0.08594 27:0.1523 28:0.1992 29:0.1797 30:0.5 31:0.5 32:0.5 33:0.3672 34:0.3164 35:0.2695 36:0.2578 37:0.07812 38:0.04688 39:0.05078 40:0.05469 41:0.08984 42:0.1211 43:0.1641 44:0.4219 45:0.4609 46:0.4375 47:0.2266 48:0.25 49:0.1445 50:0.1094 51:0.07422 52:0.05078 53:0.04688 54:0.05859 55:0.07031 56:0.1094 57:0.1797 58:0.2227 59:0.2266 60:0.5 61:0.5 62:0.4766 63:0.3828 64:0.2266 65:0.1094 66:0.07812 67:0.05078 68:0.04297 69:0.04688 70:0.0625 71:0.08984 72:0.1328 73:0.1641 74:0.3867 75:0.4688 76:0.4648 77:0.375 78:0.418 79:0.1641 80:0.1094 81:0.06641 82:0.04688 83:0.03906 84:0.04297 85:0.05469 86:0.06641 87:0.09766 88:0.168 89:0.2031 90:0.3125 91:0.5 92:0.4648 93:0.1641 94:0.1406 95:0.07812 96:0.04688 97:0.03906 98:0.03516 99:0.04297 100:0.05469 101:0.08203 102:0.1953 103:0.2773 104:0.5469 105:0.668 106:0.6055 107:0.5234 108:0.4609 109:0.1758 110:0.1211 111:0.0625 112:0.04688 113:0.03906 114:0.03516 115:0.03906 116:0.04688 117:0.07812 118:0.1133 119:0.1367 120:0.3164 121:0.5 122:0.2109 123:0.1328 124:0.1172 125:0.07422 126:0.04688 127:0.03906 128:0.04297 129:0.05859 130:0.0625 131:0.09375 132:0.1484 133:0.3242 134:0.6055 135:0.8594 136:0.8203 137:0.6875 138:0.5273 139:0.2422 140:0.08984 141:0.07031 142:0.0625 143:0.04297 144:0.03516 145:0.03906 146:0.05469 147:0.1055 148:0.09766 149:0.1367 150:0.3125 151:0.5 152:0.207 153:0.1914 154:0.4297 155:0.0625 156:0.0625 157:0.05469 158:0.05469 159:0.1016 160:0.08984 161:0.1016 162:0.1602 163:0.3047 164:0.8203 165:0.9219 166:0.918 167:0.8281 168:0.5703 169:0.1602 170:0.09766 171:0.08594 172:0.07812 173:0.05859 174:0.04688 175:0.05078 176:0.07422 177:0.2383 178:0.1172 179:0.125 180:0.3242 181:0.5 182:0.4492 183:0.4258 184:0.418 185:0.07812 186:0.0625 187:0.07812 188:0.1016 189:0.125 190:0.1094 191:0.1641 192:0.2695 193:0.6211 194:0.918 195:0.9453 196:0.9492 197:0.9102 198:0.6094 199:0.2461 200:0.09766 201:0.08984 202:0.1094 203:0.07812 204:0.06641 205:0.07422 206:0.1289 207:0.1523 208:0.2188 209:0.3164 210:0.3516 211:0.6328 212:0.6328 213:0.5898 214:0.418 215:0.3398 216:0.1836 217:0.1836 218:0.1523 219:0.1406 220:0.1758 221:0.2812 222:0.5586 223:0.8203 224:0.9531 225:0.957 226:0.9531 227:0.9375 228:0.6523 229:0.4414 230:0.1719 231:0.1211 232:0.1133 233:0.1055 234:0.1016 235:0.1289 236:0.1953 237:0.2188 238:0.2812 239:0.3906 240:0.5078 241:0.6797 242:0.6367 243:0.6133 244:0.5312 245:0.4141 246:0.3867 247:0.2812 248:0.2148 249:0.2109 250:0.25 251:0.4297 252:0.6797 253:0.9062 254:0.9648 255:0.9648 256:0.957 257:0.9297 258:0.6797 259:0.4492 260:0.3008 261:0.168 262:0.1445 263:0.2148 264:0.1641 265:0.2109 266:0.3086 267:0.3906 268:0.4258 269:0.4766 270:0.5156 271:0.7695 272:0.668 273:0.5898 274:0.5391 275:0.4453 276:0.4102 277:0.2812 278:0.2891 279:0.2656 280:0.5586 281:0.707 282:0.8125 283:0.918 284:0.9688 285:0.9688 286:0.9609 287:0.9141 288:0.7891 289:0.6328 290:0.3789 291:0.3398 292:0.3047 293:0.2852 294:0.3125 295:0.4102 296:0.4609 297:0.5078 298:0.4961 299:0.5273 300:0.5586 301:0.8398 302:0.8086 303:0.7109 304:0.6367 305:0.4922 306:0.4727 307:0.5156 308:0.5898 309:0.6719 310:0.7305 311:0.7695 312:0.8633 313:0.9531 314:0.9727 315:0.9727 316:0.9648 317:0.9297 318:0.7891 319:0.6602 320:0.6719 321:0.457 322:0.3633 323:0.3633 324:0.3242 325:0.4414 326:0.4531 327:0.5 328:0.5312 329:0.5703 330:0.668 331:0.8711 332:0.8594 333:0.8086 334:0.7617 335:0.7227 336:0.6875 337:0.6914 338:0.7031 339:0.7344 340:0.7656 341:0.8164 342:0.9062 343:0.9648 344:0.9766 345:0.9727 346:0.9609 347:0.9219 348:0.8047 349:0.6992 350:0.6758 351:0.625 352:0.5938 353:0.5898 354:0.5625 355:0.5352 356:0.5547 357:0.5703 358:0.7383 359:0.7734 360:0.7422 361:0.8906 362:0.8945 363:0.8789 364:0.8242 365:0.8008 366:0.7617 367:0.75 368:0.7656 369:0.7617 370:0.7852 371:0.8594 372:0.9492 373:0.9688 374:0.9727 375:0.9688 376:0.957 377:0.9102 378:0.8672 379:0.7305 380:0.6914 381:0.6484 382:0.668 383:0.6484 384:0.6875 385:0.7344 386:0.7539 387:0.7539 388:0.7891 389:0.8164 390:0.8086 391:0.9062 392:0.9062 393:0.8945 394:0.8555 395:0.8242 396:0.7891 397:0.7812 398:0.7812 399:0.7891 400:0.8398 401:0.918 402:0.9531 403:0.9648 404:0.9688 405:0.9648 406:0.9414 407:0.9023 408:0.8633 409:0.8242 410:0.6875 411:0.6914 412:0.7109 413:0.7305 414:0.7578 415:0.7734 416:0.793 417:0.8242 418:0.8594 419:0.8555 420:0.8398 421:0.9102 422:0.9062 423:0.8945 424:0.8672 425:0.8398 426:0.8086 427:0.7852 428:0.7891 429:0.8164 430:0.8906 431:0.9336 432:0.9492 433:0.9609 434:0.957 435:0.9453 436:0.9219 437:0.8906 438:0.8672 439:0.8516 440:0.7383 441:0.7109 442:0.6953 443:0.7578 444:0.7461 445:0.7852 446:0.8477 447:0.8633 448:0.8672 449:0.875 450:0.8828 451:0.9023 452:0.8945 453:0.8828 454:0.8672 455:0.832 456:0.7773 457:0.7578 458:0.7852 459:0.8516 460:0.9023 461:0.9258 462:0.9414 463:0.9453 464:0.9414 465:0.9219 466:0.9023 467:0.875 468:0.8672 469:0.8438 470:0.7734 471:0.7383 472:0.7305 473:0.7578 474:0.793 475:0.8438 476:0.8672 477:0.8789 478:0.8867 479:0.8945 480:0.8945 481:0.8828 482:0.8672 483:0.8594 484:0.8164 485:0.7539 486:0.7031 487:0.6875 488:0.7578 489:0.8594 490:0.8984 491:0.9141 492:0.9219 493:0.9219 494:0.9102 495:0.8906 496:0.8711 497:0.8555 498:0.8477 499:0.8398 500:0.7695 501:0.6797 502:0.7109 503:0.7461 504:0.8086 505:0.8281 506:0.8594 507:0.8789 508:0.8906 509:0.8945 510:0.8945 511:0.8516 512:0.8359 513:0.8086 514:0.7422 515:0.6641 516:0.6133 517:0.6445 518:0.8047 519:0.8633 520:0.8672 521:0.8672 522:0.8789 523:0.875 524:0.8594 525:0.8555 526:0.8398 527:0.8359 528:0.832 529:0.8281 530:0.8047 531:0.6367 532:0.6055 533:0.6797 534:0.793 535:0.8398 536:0.8555 537:0.8711 538:0.8828 539:0.8867 540:0.8867 541:0.5 542:0.7695 543:0.7656 544:0.6836 545:0.625 546:0.5898 547:0.6367 548:0.7812 549:0.8203 550:0.8008 551:0.8125 552:0.8047 553:0.8281 554:0.8164 555:0.8203 556:0.8047 557:0.8125 558:0.7812 559:0.7969 560:0.7969 561:0.5977 562:0.5781 563:0.6094 564:0.7891 565:0.8047 566:0.832 567:0.8477 568:0.8555 569:0.8594 570:0.8477 571:0.5 572:0.7188 573:0.7031 574:0.5898 575:0.5664 576:0.5859 577:0.6055 578:0.6328 579:0.6797 580:0.7227 581:0.7422 582:0.7695 583:0.7773 584:0.7773 585:0.7891 586:0.7734 587:0.7734 588:0.7617 589:0.7305 590:0.6602 591:0.5703 592:0.5664 593:0.5742 594:0.6562 595:0.7617 596:0.8164 597:0.8203 598:0.8203 599:0.8203 600:0.8008 601:0.5 602:0.6797 603:0.6172 604:0.5469 605:0.5547 606:0.582 607:0.5938 608:0.5898 609:0.5898 610:0.6445 611:0.6719 612:0.7148 613:0.7148 614:0.7383 615:0.7344 616:0.707 617:0.6719 618:0.6758 619:0.5898 620:0.543 621:0.5664 622:0.5469 623:0.543 624:0.5703 625:0.6641 626:0.793 627:0.7812 628:0.793 629:0.7773 630:0.7148 631:0.5 632:0.625 633:0.5039 634:0.5 635:0.5195 636:0.5742 637:0.582 638:0.4688 639:0.332 640:0.3125 641:0.457 642:0.6289 643:0.6172 644:0.5625 645:0.6406 646:0.6016 647:0.4922 648:0.418 649:0.4141 650:0.5195 651:0.4961 652:0.5273 653:0.5312 654:0.5312 655:0.5391 656:0.6211 657:0.6953 658:0.7617 659:0.7109 660:0.6719 661:0.5 662:0.5391 663:0.4883 664:0.4883 665:0.5234 666:0.5664 667:0.582 668:0.543 669:0.3125 670:0.2422 671:0.3008 672:0.3672 673:0.4883 674:0.4883 675:0.4688 676:0.4375 677:0.2852 678:0.2227 679:0.2969 680:0.4453 681:0.4688 682:0.5039 683:0.5117 684:0.4531 685:0.4961 686:0.5625 687:0.6484 688:0.6914 689:0.6914 690:0.6562 691:0.5 692:0.5 693:0.5039 694:0.5078 695:0.5156 696:0.5508 697:0.5664 698:0.5312 699:0.3008 700:0.2344 701:0.2344 702:0.2578 703:0.3398 704:0.375 705:0.3203 706:0.2344 707:0.207 708:0.1836 709:0.2227 710:0.332 711:0.4336 712:0.4883 713:0.4922 714:0.4297 715:0.4062 716:0.4414 717:0.6406 718:0.6797 719:0.6641 720:0.5 721:0.5 722:0.5 723:0.4062 724:0.4258 725:0.4336 726:0.5547 727:0.543 728:0.4336 729:0.2578 730:0.2148 731:0.1992 732:0.1992 733:0.1992 734:0.2773 735:0.1758 736:0.1836 737:0.1602 738:0.1797 739:0.1914 740:0.2656 741:0.4141 742:0.4375 743:0.4258 744:0.3477 745:0.3242 746:0.3203 747:0.582 748:0.6523 749:0.6445 750:0.5 751:0.5 752:0.5 753:0.2695 754:0.3672 755:0.4219 756:0.5391 757:0.4414 758:0.3398 759:0.2656 760:0.2422 761:0.1914 762:0.168 763:0.1758 764:0.1836 765:0.1484 766:0.1406 767:0.1562 768:0.1641 769:0.1758 770:0.2188 771:0.2969 772:0.2695 773:0.375 774:0.2969 775:0.2891 776:0.293 777:0.5039 778:0.6406 779:0.6211 780:0.5 781:0.5 782:0.5 783:0.5 784:0.3086 785:0.375 786:0.3867 787:0.3633 788:0.3086 789:0.2656 790:0.25 791:0.1992 792:0.1602 793:0.1602 794:0.1641 795:0.1406 796:0.1445 797:0.1602 798:0.1523 799:0.1562 800:0.2148 801:0.2148 802:0.2695 803:0.3633 804:0.2969 805:0.2891 806:0.3203 807:0.5586 808:0.6211 809:0.5 810:0.5 811:0.5 812:0.5 813:0.5 814:0.3477 815:0.3555 816:0.4023 817:0.3555 818:0.3398 819:0.293 820:0.293 821:0.25 822:0.168 823:0.2266 824:0.2227 825:0.1602 826:0.1562 827:0.2031 828:0.1641 829:0.1914 830:0.2773 831:0.3047 832:0.2852 833:0.3555 834:0.3203 835:0.3047 836:0.4531 837:0.6016 838:0.6094 839:0.5 840:0.5 841:0.5 842:0.5 843:0.5 844:0.5 845:0.3906 846:0.4453 847:0.4805 848:0.4766 849:0.4922 850:0.4023 851:0.2969 852:0.2461 853:0.2383 854:0.2578 855:0.2969 856:0.3203 857:0.3086 858:0.3281 859:0.3242 860:0.3945 861:0.3906 862:0.3164 863:0.3672 864:0.3828 865:0.4023 866:0.4258 867:0.6016 868:0.5 869:0.5 870:0.5 871:0.5 872:0.5 873:0.5 874:0.5 875:0.3594 876:0.4375 877:0.4648 878:0.4883 879:0.4766 880:0.4805 881:0.4492 882:0.4336 883:0.3594 884:0.3711 885:0.375 886:0.3438 887:0.332 888:0.4062 889:0.3867 890:0.3516 891:0.3242 892:0.3047 893:0.3477 894:0.4141 895:0.4297 896:0.4805 897:0.6211 898:0.5 899:0.5 900:0.5 
-26.50584279098629 1:0.5 2:0.5 3:0.3125 4:0.2656 5:0.1914 6:0.1602 7:0.1094 8:0.06641 9:0.0625 10:0.07422 11:0.1016 12:0.1445 13:0.1875 14:0.375 15:0.457 16:0.5352 17:0.5078 18:0.3789 19:0.2812 20:0.1641 21:0.1836 22:0.1055 23:0.05859 24:0.03906 25:0.04297 26:0.04297 27:0.07422 28:0.1055 29:0.1445 30:0.5 31:0.5 32:0.5 33:0.3398 34:0.2344 35:0.1992 36:0.125 37:0.09375 38:0.0625 39:0.05859 40:0.07031 41:0.1094 42:0.1758 43:0.2148 44:0.3672 45:0.5 46:0.5938 47:0.582 48:0.5156 49:0.3516 50:0.2344 51:0.1289 52:0.07031 53:0.05078 54:0.03906 55:0.03906 56:0.04297 57:0.0625 58:0.08984 59:0.1367 60:0.5 61:0.5 62:0.3711 63:0.3086 64:0.1836 65:0.1328 66:0.09766 67:0.05859 68:0.04688 69:0.04688 70:0.05859 71:0.08594 72:0.1562 73:0.2695 74:0.4062 75:0.7656 76:0.8047 77:0.7773 78:0.6133 79:0.3711 80:0.1875 81:0.1055 82:0.07031 83:0.05078 84:0.03906 85:0.03516 86:0.03516 87:0.04297 88:0.05469 89:0.08594 90:0.1406 91:0.5 92:0.3398 93:0.2812 94:0.1797 95:0.08594 96:0.04297 97:0.03906 98:0.03906 99:0.04688 100:0.05859 101:0.07812 102:0.1562 103:0.2812 104:0.6211 105:0.8867 106:0.9414 107:0.9375 108:0.7656 109:0.3867 110:0.125 111:0.08594 112:0.07422 113:0.0625 114:0.05078 115:0.03516 116:0.03516 117:0.03906 118:0.07031 119:0.2031 120:0.08984 121:0.5 122:0.3086 123:0.1719 124:0.1016 125:0.05078 126:0.03906 127:0.03516 128:0.03516 129:0.06641 130:0.07812 131:0.08203 132:0.1562 133:0.3008 134:0.8125 135:0.9453 136:0.957 137:0.9531 138:0.8594 139:0.418 140:0.2422 141:0.08984 142:0.07812 143:0.07812 144:0.07422 145:0.05078 146:0.04688 147:0.04688 148:0.08594 149:0.2734 150:0.125 151:0.5 152:0.2695 153:0.1875 154:0.3438 155:0.07812 156:0.04688 157:0.05078 158:0.05078 159:0.07812 160:0.1055 161:0.1133 162:0.1914 163:0.3203 164:0.8945 165:0.9609 166:0.9609 167:0.957 168:0.8906 169:0.7188 170:0.293 171:0.1055 172:0.08594 173:0.08984 174:0.09375 175:0.06641 176:0.05469 177:0.0625 178:0.1055 179:0.2461 180:0.2383 181:0.5 182:0.3047 183:0.293 184:0.375 185:0.1484 186:0.05469 187:0.05859 188:0.06641 189:0.1328 190:0.1289 191:0.1445 192:0.2227 193:0.4141 194:0.9219 195:0.9648 196:0.9688 197:0.957 198:0.9023 199:0.7109 200:0.3125 201:0.1992 202:0.09766 203:0.09766 204:0.1094 205:0.09766 206:0.07812 207:0.1172 208:0.2148 209:0.25 210:0.2695 211:0.4453 212:0.457 213:0.4023 214:0.3828 215:0.168 216:0.08984 217:0.09375 218:0.09766 219:0.1367 220:0.1602 221:0.2461 222:0.3945 223:0.8164 224:0.957 225:0.9688 226:0.9727 227:0.957 228:0.8438 229:0.7539 230:0.3516 231:0.2969 232:0.1172 233:0.1289 234:0.1484 235:0.1367 236:0.125 237:0.1719 238:0.2695 239:0.2852 240:0.3008 241:0.6133 242:0.5664 243:0.4062 244:0.3711 245:0.2734 246:0.2109 247:0.1797 248:0.1914 249:0.207 250:0.2305 251:0.3438 252:0.6055 253:0.8594 254:0.9648 255:0.9727 256:0.9727 257:0.9609 258:0.8555 259:0.7578 260:0.5273 261:0.3789 262:0.2891 263:0.1992 264:0.1914 265:0.168 266:0.1914 267:0.2578 268:0.2852 269:0.3164 270:0.3359 271:0.668 272:0.6094 273:0.4102 274:0.3984 275:0.3594 276:0.2773 277:0.2812 278:0.2773 279:0.3008 280:0.3438 281:0.6133 282:0.7461 283:0.9453 284:0.9648 285:0.9727 286:0.9727 287:0.9609 288:0.8477 289:0.7734 290:0.6641 291:0.4648 292:0.3594 293:0.3281 294:0.3281 295:0.2617 296:0.332 297:0.3281 298:0.3828 299:0.3828 300:0.4062 301:0.7227 302:0.6484 303:0.4414 304:0.4141 305:0.375 306:0.3516 307:0.3125 308:0.3398 309:0.3633 310:0.5781 311:0.7422 312:0.8359 313:0.9492 314:0.9688 315:0.9727 316:0.9727 317:0.957 318:0.8594 319:0.7695 320:0.7656 321:0.5781 322:0.4336 323:0.4141 324:0.3945 325:0.3984 326:0.4062 327:0.4023 328:0.4258 329:0.4375 330:0.4688 331:0.8438 332:0.7812 333:0.6914 334:0.582 335:0.5703 336:0.4766 337:0.4531 338:0.4648 339:0.6484 340:0.6953 341:0.7812 342:0.9102 343:0.957 344:0.9688 345:0.9727 346:0.9688 347:0.9492 348:0.8867 349:0.8164 350:0.7852 351:0.6289 352:0.457 353:0.457 354:0.4414 355:0.4258 356:0.4414 357:0.4609 358:0.4844 359:0.4688 360:0.6055 361:0.8672 362:0.8516 363:0.793 364:0.7578 365:0.7383 366:0.6406 367:0.582 368:0.7227 369:0.7656 370:0.7734 371:0.8164 372:0.9414 373:0.9609 374:0.9688 375:0.9688 376:0.9648 377:0.9414 378:0.8828 379:0.8242 380:0.7969 381:0.6992 382:0.5664 383:0.6133 384:0.5 385:0.5312 386:0.5703 387:0.6133 388:0.5234 389:0.6758 390:0.7148 391:0.8633 392:0.8594 393:0.8398 394:0.8086 395:0.7812 396:0.8008 397:0.7852 398:0.8242 399:0.7852 400:0.7812 401:0.8672 402:0.9414 403:0.957 404:0.9648 405:0.9648 406:0.9531 407:0.9258 408:0.8594 409:0.832 410:0.8008 411:0.7266 412:0.5859 413:0.6328 414:0.6914 415:0.6758 416:0.707 417:0.6328 418:0.6875 419:0.7109 420:0.7305 421:0.8672 422:0.8516 423:0.8438 424:0.8555 425:0.8633 426:0.8672 427:0.8594 428:0.8086 429:0.7734 430:0.7891 431:0.9141 432:0.9414 433:0.9531 434:0.957 435:0.9492 436:0.9375 437:0.9023 438:0.8477 439:0.8203 440:0.8047 441:0.7773 442:0.668 443:0.6758 444:0.7227 445:0.7148 446:0.7656 447:0.7266 448:0.7812 449:0.7656 450:0.7344 451:0.8633 452:0.8594 453:0.875 454:0.8789 455:0.8789 456:0.8672 457:0.8164 458:0.7852 459:0.7578 460:0.8242 461:0.918 462:0.9297 463:0.9375 464:0.9375 465:0.9258 466:0.9062 467:0.8555 468:0.8203 469:0.8047 470:0.7969 471:0.7734 472:0.6992 473:0.6875 474:0.7539 475:0.7695 476:0.7969 477:0.793 478:0.8008 479:0.793 480:0.7539 481:0.8516 482:0.8711 483:0.8789 484:0.8672 485:0.8594 486:0.8594 487:0.8008 488:0.7227 489:0.7305 490:0.8711 491:0.9102 492:0.918 493:0.9141 494:0.918 495:0.8906 496:0.8711 497:0.8203 498:0.8008 499:0.793 500:0.7812 501:0.7656 502:0.6758 503:0.6953 504:0.7617 505:0.7969 506:0.8047 507:0.8086 508:0.7969 509:0.8086 510:0.8008 511:0.8516 512:0.8633 513:0.875 514:0.8789 515:0.8477 516:0.8086 517:0.7305 518:0.6992 519:0.7461 520:0.8555 521:0.8203 522:0.793 523:0.8281 524:0.8203 525:0.8125 526:0.8398 527:0.7852 528:0.7773 529:0.7539 530:0.7656 531:0.7617 532:0.7109 533:0.6055 534:0.7695 535:0.793 536:0.793 537:0.8125 538:0.793 539:0.8125 540:0.8086 541:0.5 542:0.8594 543:0.8672 544:0.8672 545:0.8359 546:0.75 547:0.6914 548:0.6641 549:0.7148 550:0.7344 551:0.6406 552:0.6289 553:0.6797 554:0.7188 555:0.7422 556:0.6875 557:0.7148 558:0.6875 559:0.6992 560:0.6914 561:0.6992 562:0.6875 563:0.5312 564:0.7461 565:0.7969 566:0.8008 567:0.8086 568:0.8047 569:0.8125 570:0.7773 571:0.5 572:0.832 573:0.8398 574:0.8281 575:0.7812 576:0.7188 577:0.5312 578:0.5664 579:0.5391 580:0.5234 581:0.4883 582:0.5547 583:0.5898 584:0.6133 585:0.6016 586:0.543 587:0.5586 588:0.5781 589:0.4609 590:0.4102 591:0.4336 592:0.4375 593:0.4766 594:0.6758 595:0.7578 596:0.8008 597:0.8047 598:0.7617 599:0.7969 600:0.7773 601:0.5 602:0.8086 603:0.8203 604:0.7617 605:0.7422 606:0.6758 607:0.5078 608:0.4961 609:0.4688 610:0.3477 611:0.3047 612:0.3867 613:0.4375 614:0.4141 615:0.4609 616:0.5312 617:0.4375 618:0.3633 619:0.2578 620:0.3008 621:0.3633 622:0.3984 623:0.4961 624:0.6016 625:0.5781 626:0.7734 627:0.8008 628:0.7734 629:0.793 630:0.7422 631:0.5 632:0.7695 633:0.7656 634:0.7461 635:0.7031 636:0.5273 637:0.5039 638:0.4883 639:0.457 640:0.2734 641:0.2266 642:0.2617 643:0.3555 644:0.3594 645:0.3633 646:0.375 647:0.3281 648:0.2422 649:0.2031 650:0.2305 651:0.2969 652:0.3867 653:0.4648 654:0.543 655:0.543 656:0.6211 657:0.7617 658:0.7383 659:0.7227 660:0.7383 661:0.5 662:0.7109 663:0.6953 664:0.6875 665:0.6016 666:0.5195 667:0.5234 668:0.5195 669:0.4688 670:0.2656 671:0.2734 672:0.2422 673:0.2969 674:0.3086 675:0.3281 676:0.3281 677:0.2734 678:0.2227 679:0.2305 680:0.2227 681:0.2617 682:0.375 683:0.4336 684:0.5977 685:0.6367 686:0.5977 687:0.668 688:0.7539 689:0.7109 690:0.6992 691:0.5 692:0.5 693:0.6641 694:0.6094 695:0.5508 696:0.5273 697:0.5352 698:0.5938 699:0.5391 700:0.2812 701:0.2695 702:0.3008 703:0.2891 704:0.2891 705:0.293 706:0.2773 707:0.2656 708:0.2422 709:0.2227 710:0.2031 711:0.2305 712:0.3594 713:0.5352 714:0.6055 715:0.6094 716:0.5938 717:0.625 718:0.6641 719:0.6758 720:0.5 721:0.5 722:0.5 723:0.6211 724:0.5703 725:0.5586 726:0.5469 727:0.5859 728:0.6016 729:0.5742 730:0.4453 731:0.3008 732:0.2812 733:0.293 734:0.2734 735:0.2734 736:0.2695 737:0.2578 738:0.1914 739:0.1914 740:0.207 741:0.2695 742:0.4219 743:0.6133 744:0.5625 745:0.6289 746:0.6484 747:0.6406 748:0.5938 749:0.6758 750:0.5 751:0.5 752:0.5 753:0.6172 754:0.5938 755:0.582 756:0.582 757:0.6016 758:0.5977 759:0.5234 760:0.4648 761:0.3359 762:0.2891 763:0.2617 764:0.2461 765:0.2539 766:0.2266 767:0.2031 768:0.1562 769:0.168 770:0.1836 771:0.2773 772:0.4297 773:0.6328 774:0.6055 775:0.6016 776:0.5547 777:0.5781 778:0.5781 779:0.6016 780:0.5 781:0.5 782:0.5 783:0.5 784:0.5938 785:0.5938 786:0.5938 787:0.6016 788:0.5703 789:0.5 790:0.457 791:0.332 792:0.3047 793:0.2266 794:0.1992 795:0.2227 796:0.1953 797:0.1523 798:0.1484 799:0.1523 800:0.1836 801:0.2734 802:0.4453 803:0.6328 804:0.6328 805:0.5977 806:0.5273 807:0.543 808:0.5625 809:0.5 810:0.5 811:0.5 812:0.5 813:0.5 814:0.5977 815:0.6133 816:0.5781 817:0.5703 818:0.5586 819:0.4688 820:0.3555 821:0.2969 822:0.2617 823:0.2109 824:0.1797 825:0.1836 826:0.1641 827:0.1484 828:0.1406 829:0.1445 830:0.1602 831:0.2344 832:0.3516 833:0.4883 834:0.4922 835:0.5 836:0.4883 837:0.5234 838:0.5312 839:0.5 840:0.5 841:0.5 842:0.5 843:0.5 844:0.5 845:0.5781 846:0.5703 847:0.5352 848:0.4688 849:0.3867 850:0.3164 851:0.2656 852:0.2539 853:0.2109 854:0.1836 855:0.1836 856:0.1797 857:0.1523 858:0.1484 859:0.1484 860:0.1523 861:0.1914 862:0.3594 863:0.3594 864:0.3828 865:0.4375 866:0.3945 867:0.4492 868:0.5 869:0.5 870:0.5 871:0.5 872:0.5 873:0.5 874:0.5 875:0.5156 876:0.4883 877:0.4805 878:0.3984 879:0.3477 880:0.3047 881:0.2617 882:0.25 883:0.2148 884:0.1875 885:0.1914 886:0.1992 887:0.1758 888:0.1523 889:0.1562 890:0.1719 891:0.2188 892:0.2617 893:0.2773 894:0.3359 895:0.4023 896:0.3867 897:0.4023 898:0.5 899:0.5 900:0.5 
-106.7335412280096 1:0.5 2:0.5 3:0.3789 4:0.3438 5:0.3047 6:0.2969 7:0.1602 8:0.08203 9:0.08203 10:0.07422 11:0.1211 12:0.1484 13:0.2305 14:0.3164 15:0.5195 16:0.5469 17:0.4492 18:0.3867 19:0.3359 20:0.2266 21:0.168 22:0.08594 23:0.0625 24:0.05078 25:0.05859 26:0.1094 27:0.1289 28:0.2461 29:0.2422 30:0.5 31:0.5 32:0.5 33:0.3867 34:0.3438 35:0.2539 36:0.1484 37:0.08203 38:0.0625 39:0.0625 40:0.07031 41:0.1289 42:0.1797 43:0.2852 44:0.3359 45:0.5508 46:0.7227 47:0.5859 48:0.5938 49:0.3789 50:0.2461 51:0.1992 52:0.06641 53:0.05078 54:0.04297 55:0.04688 56:0.05859 57:0.08203 58:0.125 59:0.1406 60:0.5 61:0.5 62:0.4258 63:0.375 64:0.1562 65:0.2422 66:0.08203 67:0.05859 68:0.04688 69:0.05078 70:0.05469 71:0.1055 72:0.1562 73:0.293 74:0.5469 75:0.7812 76:0.8164 77:0.7656 78:0.7227 79:0.4219 80:0.2461 81:0.1406 82:0.0625 83:0.04688 84:0.04297 85:0.03906 86:0.04297 87:0.05859 88:0.09375 89:0.1328 90:0.1523 91:0.5 92:0.3828 93:0.3203 94:0.2461 95:0.1055 96:0.04297 97:0.03906 98:0.03906 99:0.04688 100:0.05078 101:0.09375 102:0.1328 103:0.2773 104:0.6602 105:0.9336 106:0.9414 107:0.9414 108:0.7734 109:0.418 110:0.2148 111:0.1055 112:0.0625 113:0.04688 114:0.03906 115:0.03516 116:0.03906 117:0.04297 118:0.07422 119:0.08984 120:0.1328 121:0.5 122:0.3555 123:0.207 124:0.08203 125:0.1445 126:0.04688 127:0.03906 128:0.03516 129:0.0625 130:0.0625 131:0.08594 132:0.1445 133:0.2148 134:0.8906 135:0.957 136:0.957 137:0.9531 138:0.7969 139:0.3281 140:0.2031 141:0.08984 142:0.07031 143:0.07031 144:0.04688 145:0.03906 146:0.03906 147:0.04688 148:0.1055 149:0.2148 150:0.1211 151:0.5 152:0.3516 153:0.2383 154:0.3711 155:0.1797 156:0.04688 157:0.05078 158:0.04297 159:0.1055 160:0.1094 161:0.1055 162:0.1602 163:0.375 164:0.9453 165:0.9648 166:0.9648 167:0.957 168:0.918 169:0.4258 170:0.2344 171:0.1094 172:0.08984 173:0.1289 174:0.08203 175:0.05469 176:0.05078 177:0.0625 178:0.2266 179:0.2539 180:0.1211 181:0.5 182:0.3828 183:0.3945 184:0.3789 185:0.2227 186:0.07031 187:0.05469 188:0.05469 189:0.1055 190:0.1094 191:0.1406 192:0.2773 193:0.6406 194:0.9648 195:0.9688 196:0.9688 197:0.9609 198:0.8789 199:0.6602 200:0.3164 201:0.207 202:0.09375 203:0.1289 204:0.1055 205:0.07031 206:0.07031 207:0.07812 208:0.207 209:0.2812 210:0.2773 211:0.5469 212:0.5117 213:0.4375 214:0.3672 215:0.2969 216:0.1641 217:0.1484 218:0.1055 219:0.1992 220:0.1797 221:0.2266 222:0.5156 223:0.7891 224:0.9688 225:0.9727 226:0.9727 227:0.957 228:0.8867 229:0.5898 230:0.3125 231:0.2227 232:0.1836 233:0.1758 234:0.1211 235:0.1211 236:0.1133 237:0.1758 238:0.2305 239:0.3203 240:0.3164 241:0.7305 242:0.5586 243:0.4492 244:0.3789 245:0.3164 246:0.2891 247:0.1836 248:0.2109 249:0.2422 250:0.2461 251:0.4648 252:0.7344 253:0.9531 254:0.9688 255:0.9766 256:0.9727 257:0.957 258:0.8477 259:0.7578 260:0.4414 261:0.3047 262:0.2461 263:0.1992 264:0.1484 265:0.1445 266:0.2305 267:0.2734 268:0.3008 269:0.3281 270:0.3555 271:0.7695 272:0.7227 273:0.4375 274:0.3906 275:0.3398 276:0.3008 277:0.2656 278:0.3086 279:0.293 280:0.4922 281:0.7148 282:0.8008 283:0.9531 284:0.9688 285:0.9766 286:0.9727 287:0.9531 288:0.8203 289:0.7812 290:0.6133 291:0.3594 292:0.3359 293:0.3047 294:0.2383 295:0.1562 296:0.3008 297:0.3164 298:0.3555 299:0.3789 300:0.4023 301:0.7852 302:0.7695 303:0.7227 304:0.4609 305:0.4219 306:0.3477 307:0.3633 308:0.3906 309:0.4844 310:0.7227 311:0.7422 312:0.9062 313:0.957 314:0.9727 315:0.9727 316:0.9688 317:0.9453 318:0.8555 319:0.7734 320:0.6719 321:0.668 322:0.4258 323:0.375 324:0.3867 325:0.3867 326:0.3867 327:0.418 328:0.4336 329:0.4844 330:0.5352 331:0.8281 332:0.8164 333:0.7773 334:0.7383 335:0.6836 336:0.5859 337:0.5 338:0.4844 339:0.7148 340:0.7695 341:0.8242 342:0.9414 343:0.9609 344:0.9688 345:0.9727 346:0.9648 347:0.9414 348:0.8672 349:0.7969 350:0.7734 351:0.5898 352:0.5391 353:0.4648 354:0.4297 355:0.4531 356:0.4336 357:0.4414 358:0.543 359:0.6484 360:0.6484 361:0.8477 362:0.8477 363:0.8242 364:0.7812 365:0.7383 366:0.7109 367:0.7422 368:0.7734 369:0.7656 370:0.7812 371:0.9219 372:0.9453 373:0.9609 374:0.9688 375:0.9688 376:0.957 377:0.9336 378:0.875 379:0.832 380:0.793 381:0.5938 382:0.6445 383:0.582 384:0.5195 385:0.4648 386:0.4844 387:0.5781 388:0.625 389:0.6836 390:0.6797 391:0.8477 392:0.8398 393:0.8594 394:0.8398 395:0.8594 396:0.8633 397:0.8516 398:0.8008 399:0.7852 400:0.8281 401:0.9258 402:0.9453 403:0.957 404:0.9609 405:0.9609 406:0.9453 407:0.918 408:0.8555 409:0.8242 410:0.8008 411:0.5898 412:0.6328 413:0.6484 414:0.707 415:0.625 416:0.6953 417:0.7227 418:0.6406 419:0.7188 420:0.7188 421:0.8477 422:0.8438 423:0.8633 424:0.8711 425:0.875 426:0.8711 427:0.8555 428:0.8047 429:0.7969 430:0.8945 431:0.9258 432:0.9375 433:0.9492 434:0.9492 435:0.9414 436:0.9219 437:0.8789 438:0.8398 439:0.8125 440:0.793 441:0.6367 442:0.6445 443:0.707 444:0.6992 445:0.7344 446:0.7969 447:0.8047 448:0.7578 449:0.7695 450:0.7773 451:0.8359 452:0.8477 453:0.8633 454:0.8672 455:0.8711 456:0.8633 457:0.8242 458:0.7812 459:0.7812 460:0.8984 461:0.9141 462:0.9297 463:0.9336 464:0.9297 465:0.918 466:0.8672 467:0.832 468:0.8125 469:0.7969 470:0.7773 471:0.6641 472:0.7383 473:0.7578 474:0.8008 475:0.7891 476:0.8203 477:0.8125 478:0.8086 479:0.793 480:0.7852 481:0.8398 482:0.8398 483:0.8633 484:0.8477 485:0.8555 486:0.8477 487:0.7422 488:0.7422 489:0.8008 490:0.8945 491:0.8867 492:0.9102 493:0.9141 494:0.8945 495:0.8594 496:0.832 497:0.8086 498:0.793 499:0.7852 500:0.7773 501:0.7305 502:0.6445 503:0.793 504:0.8086 505:0.8203 506:0.8281 507:0.8242 508:0.8125 509:0.8008 510:0.7969 511:0.8398 512:0.8242 513:0.832 514:0.8438 515:0.8242 516:0.7188 517:0.6836 518:0.7109 519:0.7578 520:0.7773 521:0.7422 522:0.7539 523:0.7656 524:0.7891 525:0.8008 526:0.7852 527:0.7773 528:0.7578 529:0.7578 530:0.7695 531:0.7422 532:0.5781 533:0.5938 534:0.793 535:0.8164 536:0.832 537:0.8242 538:0.8164 539:0.8008 540:0.7969 541:0.5 542:0.8047 543:0.8047 544:0.8398 545:0.7695 546:0.6875 547:0.6172 548:0.6562 549:0.6211 550:0.5703 551:0.582 552:0.6094 553:0.6875 554:0.6953 555:0.6953 556:0.707 557:0.6328 558:0.6289 559:0.5977 560:0.5703 561:0.6289 562:0.5625 563:0.5859 564:0.7656 565:0.8203 566:0.8242 567:0.8203 568:0.8125 569:0.793 570:0.7852 571:0.5 572:0.7969 573:0.7734 574:0.7422 575:0.7148 576:0.6328 577:0.5352 578:0.5078 579:0.4883 580:0.4766 581:0.5273 582:0.5078 583:0.5312 584:0.5625 585:0.5859 586:0.6211 587:0.4492 588:0.3867 589:0.3867 590:0.4062 591:0.4414 592:0.4609 593:0.5352 594:0.75 595:0.8086 596:0.8125 597:0.7969 598:0.8086 599:0.7891 600:0.7656 601:0.5 602:0.7539 603:0.7344 604:0.7109 605:0.6562 606:0.5469 607:0.5234 608:0.4961 609:0.3516 610:0.1875 611:0.2266 612:0.3438 613:0.3789 614:0.3789 615:0.4023 616:0.4375 617:0.3711 618:0.2539 619:0.1992 620:0.3633 621:0.4062 622:0.4219 623:0.5977 624:0.6914 625:0.75 626:0.8047 627:0.793 628:0.8047 629:0.7539 630:0.6211 631:0.5 632:0.7305 633:0.707 634:0.6602 635:0.5977 636:0.5273 637:0.5352 638:0.4688 639:0.2383 640:0.1992 641:0.1641 642:0.2656 643:0.332 644:0.3398 645:0.3438 646:0.3125 647:0.1602 648:0.1523 649:0.1758 650:0.3086 651:0.3828 652:0.4531 653:0.6562 654:0.5781 655:0.6914 656:0.7773 657:0.7656 658:0.7148 659:0.7109 660:0.5859 661:0.5 662:0.707 663:0.6914 664:0.6055 665:0.5586 666:0.543 667:0.5625 668:0.5234 669:0.2656 670:0.2539 671:0.2578 672:0.2656 673:0.2891 674:0.3008 675:0.2891 676:0.2617 677:0.2383 678:0.1641 679:0.168 680:0.2109 681:0.3867 682:0.4922 683:0.543 684:0.5508 685:0.5703 686:0.6602 687:0.7148 688:0.6719 689:0.7383 690:0.6133 691:0.5 692:0.5 693:0.6289 694:0.5742 695:0.5703 696:0.5664 697:0.5703 698:0.5352 699:0.4258 700:0.2695 701:0.2734 702:0.2773 703:0.2539 704:0.2617 705:0.25 706:0.2383 707:0.1992 708:0.1719 709:0.1875 710:0.2539 711:0.4375 712:0.5625 713:0.5234 714:0.582 715:0.5547 716:0.6211 717:0.6992 718:0.7266 719:0.7031 720:0.5 721:0.5 722:0.5 723:0.5938 724:0.5859 725:0.5977 726:0.6094 727:0.5625 728:0.5391 729:0.5 730:0.3164 731:0.2656 732:0.2695 733:0.25 734:0.2266 735:0.2383 736:0.2227 737:0.1719 738:0.1797 739:0.1875 740:0.2656 741:0.4805 742:0.5508 743:0.5703 744:0.6172 745:0.6055 746:0.6328 747:0.6055 748:0.6953 749:0.6523 750:0.5 751:0.5 752:0.5 753:0.5938 754:0.5938 755:0.6094 756:0.6289 757:0.6016 758:0.5195 759:0.418 760:0.3398 761:0.3125 762:0.2188 763:0.168 764:0.2227 765:0.1836 766:0.1641 767:0.1562 768:0.1523 769:0.1562 770:0.207 771:0.4688 772:0.5508 773:0.6992 774:0.625 775:0.5977 776:0.6445 777:0.6094 778:0.5898 779:0.6094 780:0.5 781:0.5 782:0.5 783:0.5 784:0.6172 785:0.6328 786:0.6367 787:0.5703 788:0.5078 789:0.3672 790:0.2891 791:0.2617 792:0.1602 793:0.1445 794:0.1797 795:0.1484 796:0.1211 797:0.1445 798:0.1445 799:0.1562 800:0.2656 801:0.3867 802:0.6367 803:0.6484 804:0.5273 805:0.5078 806:0.5781 807:0.5547 808:0.6172 809:0.5 810:0.5 811:0.5 812:0.5 813:0.5 814:0.582 815:0.5664 816:0.5547 817:0.4883 818:0.3984 819:0.3477 820:0.2344 821:0.2188 822:0.1836 823:0.1445 824:0.168 825:0.1484 826:0.1094 827:0.1211 828:0.1328 829:0.1289 830:0.2188 831:0.3945 832:0.4102 833:0.3984 834:0.4531 835:0.4688 836:0.5039 837:0.5312 838:0.5742 839:0.5 840:0.5 841:0.5 842:0.5 843:0.5 844:0.5 845:0.4727 846:0.4805 847:0.3984 848:0.3203 849:0.2969 850:0.2344 851:0.2227 852:0.2148 853:0.1562 854:0.1797 855:0.168 856:0.1211 857:0.1406 858:0.1445 859:0.1289 860:0.1602 861:0.3438 862:0.375 863:0.3828 864:0.3594 865:0.4023 866:0.4492 867:0.5195 868:0.5 869:0.5 870:0.5 871:0.5 872:0.5 873:0.5 874:0.5 875:0.4297 876:0.4141 877:0.3672 878:0.3242 879:0.3203 880:0.2695 881:0.2852 882:0.25 883:0.1953 884:0.2227 885:0.25 886:0.2109 887:0.168 888:0.168 889:0.1719 890:0.1758 891:0.2461 892:0.2227 893:0.3438 894:0.3672 895:0.3359 896:0.375 897:0.5117 898:0.5 899:0.5 900:0.5 
